{"weights": {"0": {"dense/kernel:0": [[-0.02036200277507305, 0.005626010708510876, 0.05005759373307228, -0.041253868490457535], [0.04092121496796608, -0.05999729037284851, -0.04723256453871727, 0.0037863750476390123], [-0.03995378687977791, -0.04670654609799385, -0.07272753119468689, 0.06671715527772903], [0.013016951270401478, 0.06533928960561752, 0.040325652807950974, 0.028105657547712326], [0.05229780450463295, -0.0121171148493886, -0.06301192194223404, -0.006934112869203091], [0.04340515658259392, 0.040367040783166885, -0.01660645566880703, 0.002180490642786026], [0.016264891251921654, 0.01430361345410347, 0.025900021195411682, 0.00033497382537461817], [0.026939108967781067, -0.04696882516145706, -0.041861142963171005, 0.012617487460374832], [-0.0012751056347042322, -0.013454901054501534, -0.03158111497759819, 0.06947221606969833], [0.00021616800222545862, -0.0017362423241138458, 0.01792106032371521, -0.048276934772729874], [0.00395443057641387, 0.011297685094177723, -0.021621223539114, 0.050117187201976776], [-0.00838265661150217, -0.00943736545741558, -0.02416413091123104, -0.015701476484537125], [-0.046249423176050186, -0.03110496699810028, -0.029245808720588684, -0.028348740190267563], [-0.0013536777114495635, -0.045665767043828964, -0.024733711034059525, 0.017256053164601326], [-0.011356453411281109, 0.0015997262671589851, -0.06545758247375488, 0.025727957487106323], [0.04970801994204521, 0.01780414581298828, 0.019968107342720032, -0.024260729551315308], [0.02295176312327385, -0.02239259146153927, 0.008298136293888092, 0.004432704299688339], [0.04342478886246681, 0.028017153963446617, 0.0177068579941988, 0.012155434116721153], [0.010570923797786236, -0.026485498994588852, 0.013476194813847542, -0.06736867874860764], [0.03265013173222542, 0.014285187236964703, -0.05964185670018196, 0.03556254506111145], [-0.019028520211577415, -0.011844722554087639, -0.002034393372014165, 0.022467579692602158], [0.021218927577137947, 0.02094767615199089, -0.030177123844623566, -0.008685247972607613], [-0.031042959541082382, 0.03345596417784691, -0.052260857075452805, 0.046319298446178436], [-0.0076834335923194885, -0.00627647852525115, -0.03158285841345787, -0.012920375913381577], [-0.02833077497780323, 0.04074766859412193, 0.0045734369195997715, -0.053129423409700394], [0.06153648719191551, -0.050389036536216736, -0.020132482051849365, 0.010440846905112267], [0.052068937569856644, -0.013940529897809029, -0.06859368085861206, 0.05400494858622551], [0.030854614451527596, 0.0327116884291172, 0.013068841770291328, -0.004396846052259207], [0.05024413391947746, -0.034274764358997345, -0.015978112816810608, 0.041426897048950195], [0.005851360037922859, -0.030606308951973915, 0.003700211411342025, 0.03682752326130867], [0.007585760205984116, -0.00780775910243392, 0.05723443627357483, -0.03132643923163414], [0.02308185026049614, 0.019878292456269264, 0.022605527192354202, 0.008603306487202644], [-0.02665184624493122, -0.044361311942338943, -0.0072759292088449, -0.015486183576285839], [0.01867198385298252, 0.02848028391599655, 0.05324951186776161, -0.04751292243599892], [0.025587689131498337, -0.054053254425525665, -0.011355058290064335, 0.0156555138528347], [0.014511254616081715, -0.05183948203921318, -0.040106866508722305, -0.02408536523580551], [-0.04109685495495796, -0.002262894529849291, 0.02120709791779518, -0.022880185395479202], [0.017859309911727905, -0.0460757240653038, -0.0638592466711998, -0.016551565378904343], [-0.03731507435441017, -0.055701661854982376, -0.054287251085042953, 0.05848107114434242], [-0.03660786524415016, 0.04944634810090065, 0.03410017117857933, -0.002223436487838626], [-0.029187988489866257, -0.04999209940433502, -0.05845416709780693, 0.02147301845252514], [0.047260913997888565, -0.014041261747479439, -0.010700013488531113, 0.031063834205269814], [0.024546151980757713, 0.03887277469038963, 0.040532249957323074, -0.055745597928762436], [0.06169036030769348, -0.012042724527418613, -0.00037871135282330215, 0.04857124388217926], [-0.02173096127808094, 0.037167031317949295, -0.02977699041366577, 0.013250123709440231], [-0.010126887820661068, -0.0266767255961895, 0.023487839847803116, 0.02499460056424141], [0.0224149189889431, 0.001669418066740036, 0.030329614877700806, -0.003838777309283614], [-0.033477868884801865, -0.001156842801719904, 0.0009283471736125648, 0.009619353339076042], [0.043972309678792953, 0.0350915901362896, -0.013863258063793182, -0.040890369564294815], [-0.013925629667937756, 0.02916811592876911, -0.0657011866569519, -0.011206399649381638], [0.048934999853372574, 0.043482232838869095, -0.02861746959388256, 0.031579744070768356], [0.012205122970044613, 0.05121244862675667, 0.04923563078045845, -0.05298611894249916], [0.038585904985666275, -0.035762954503297806, -0.06548954546451569, -0.02415688894689083], [0.0054372865706682205, -0.041861023753881454, -0.05669033154845238, 0.03221942484378815], [0.010928084142506123, -0.009266212582588196, -0.0014571055071428418, -0.049469392746686935], [-0.016390273347496986, -0.029253242537379265, -0.0014953380450606346, -0.005600915290415287], [0.016235219314694405, 0.0026333301793783903, -0.02338436059653759, 0.07356631010770798], [-0.014124511741101742, 0.014217417687177658, 0.06604670733213425, 0.002953134709969163], [-0.02241196110844612, -0.037762582302093506, -0.030407743528485298, 0.0707329735159874], [0.0429597906768322, 0.0207782331854105, -0.0653417706489563, 0.054323192685842514], [0.053771618753671646, -0.0016549541614949703, 0.03179362788796425, -0.0009993993444368243], [0.025360383093357086, 0.0331706777215004, -0.0425897054374218, 0.058145567774772644], [0.017936253920197487, 0.041891660541296005, -0.05158334597945213, 0.05340960994362831], [0.014194459654390812, -0.0160229355096817, 0.043825600296258926, -0.041739676147699356], [0.049434009939432144, 0.008435804396867752, -0.05467334762215614, 0.02144538052380085], [-0.020488599315285683, -0.03195147588849068, -0.023672303184866905, 0.043700333684682846], [0.0316002257168293, -0.00047575062490068376, 0.06752266734838486, -0.05795131251215935], [-0.022147659212350845, -0.004890491254627705, -0.009074794128537178, 0.017282186076045036], [-0.016665393486618996, 0.018949734047055244, -0.01111503504216671, -0.00604651914909482], [0.0068646203726530075, 0.05806215479969978, -0.025013532489538193, -0.04406433925032616], [0.010320852510631084, -0.052453309297561646, -0.03818449005484581, 0.030040182173252106], [-0.016170144081115723, -0.01622607931494713, -0.06313583254814148, -0.009018836542963982], [-0.042896296828985214, 0.021093513816595078, 0.010743256658315659, -0.06464364379644394], [0.043421681970357895, 0.02820719964802265, 0.002402709564194083, 0.030870424583554268], [0.03434503823518753, -0.031229130923748016, -0.051943402737379074, 0.06385686248540878], [-0.029970457777380943, -0.015987370163202286, -0.02763734757900238, -0.0074972850270569324], [0.02929890900850296, 0.014644610695540905, 0.014609061181545258, 0.05270183086395264], [0.04586263373494148, -0.05438606068491936, -0.056959982961416245, -0.022804953157901764], [-0.024699820205569267, 0.01679592952132225, 0.009927086532115936, -0.06399274617433548], [0.048829104751348495, 0.0028329121414572, 0.016319798305630684, -0.008554801344871521], [-0.02713778428733349, 0.03826461359858513, -0.02411915920674801, 0.0400521419942379], [-0.027452541515231133, -0.003404890652745962, 0.05014337971806526, -0.06236213818192482], [0.038233768194913864, 0.024071546271443367, -0.023983854800462723, 0.009925637394189835], [-0.005591496825218201, -0.020632429048419, -0.06990848481655121, -0.004725509788841009], [0.03132330998778343, 0.055781763046979904, -0.00016545047401450574, -0.05365375056862831], [-0.01414079125970602, -0.03707784414291382, 0.0125276492908597, 0.04840223491191864], [-0.033853475004434586, -0.0050545805133879185, -0.010647699236869812, -0.012669822201132774], [0.0185085479170084, 0.02183454856276512, 0.047984812408685684, -0.01819557324051857], [0.029480764642357826, -0.028727194294333458, -0.06435272097587585, -0.02190585993230343], [0.04813109710812569, 0.0005835843621753156, -0.02182766981422901, 0.04129207506775856], [0.001287120277993381, 0.00651924405246973, 0.04449932649731636, -0.05310365930199623], [0.04810233786702156, -0.032603781670331955, -0.027889162302017212, 0.04530593752861023], [0.04525839164853096, 0.021277884021401405, -0.01495492085814476, 0.07015527039766312], [0.022886184975504875, 0.04211963340640068, 0.06539297848939896, -0.030035635456442833], [-0.008370981551706791, -0.05716856196522713, -0.03261521831154823, -0.01440880075097084], [0.04655713960528374, 0.014083195477724075, -0.014762207865715027, 0.06329919397830963], [-0.043441157788038254, -0.007200098596513271, -0.003128780284896493, 0.018840927630662918], [0.04799751564860344, 0.02673332579433918, -0.002289027674123645, -0.010698754340410233], [0.012022810988128185, 0.03461344912648201, -0.054718341678380966, 0.061165161430835724], [-0.034525316208601, 0.0411594994366169, 0.04719700291752815, -0.004909012001007795], [0.028946157544851303, 0.03078131563961506, -0.032328035682439804, 0.030672943219542503], [-0.03021405078470707, 0.03198748454451561, -0.03664932772517204, 0.021394681185483932], [0.01772237755358219, -0.023931879550218582, -0.007555258926004171, 0.030480876564979553], [0.015553697943687439, 0.02774255909025669, -0.022025324404239655, 0.06004982441663742], [-0.00793997198343277, -0.020895404741168022, -0.029145127162337303, 0.010373160243034363], [0.02915515936911106, 0.05839699134230614, -0.014174368232488632, -0.06657480448484421], [0.00053564173867926, 0.02387968637049198, -0.004806058946996927, 0.04934869706630707], [-0.03149702399969101, 0.013266026973724365, -0.04286837950348854, 0.03296871855854988], [-0.03170820698142052, -0.024391211569309235, 0.038953300565481186, 0.008585600182414055], [0.04361618682742119, 0.0031310550402849913, 0.020043950527906418, 0.049333080649375916], [0.04912945255637169, 0.04315756633877754, -0.04502047970890999, 0.05551484599709511], [-0.03508159890770912, 0.05060234293341637, 0.0494992695748806, -0.029374055564403534], [-0.011232930235564709, -0.035092175006866455, -0.01755577325820923, 0.0640944316983223], [-0.03270389512181282, 0.03753040358424187, 0.011005779728293419, -0.020541518926620483], [0.03132646530866623, 0.04818403348326683, 0.021929610520601273, -0.04211803898215294], [0.010840022005140781, 0.009046186693012714, -0.019993841648101807, 0.015213685110211372], [0.024552324786782265, -0.027725720778107643, -0.019563468173146248, 0.0035794975701719522], [-0.027304409071803093, 0.04143904522061348, 0.0010670552728697658, 0.01914273202419281], [0.013841653242707253, -0.059659119695425034, -0.01451148185878992, 0.042909204959869385], [-0.017298012971878052, 0.034385114908218384, -0.028858168050646782, -0.015168406069278717], [0.04279792681336403, 0.03442522510886192, -0.006625714246183634, -0.05810767784714699], [-0.0014411761658266187, -0.019037744030356407, 0.008283698931336403, -0.020027896389365196], [-0.031713761389255524, 0.06008531525731087, 0.017116209492087364, -0.02125614881515503], [0.002210294594988227, 0.02874542400240898, 0.03292449191212654, -0.060951609164476395], [-0.021435726433992386, 0.011534254066646099, -0.02358083985745907, -0.027279719710350037], [-0.005069802049547434, -0.017853185534477234, 0.024779072031378746, -0.019347433000802994], [-0.04852096363902092, 0.01608755812048912, 0.028423378244042397, -0.013647696934640408], [0.016147857531905174, -0.053885530680418015, -0.019196417182683945, -0.00037291861372068524], [0.027908338233828545, -0.05568420886993408, -0.06999143213033676, -0.010952186770737171], [-0.01635880582034588, 0.01485752034932375, 0.0061455597169697285, 0.010539179667830467], [-0.0025456419680267572, 0.019170081242918968, -0.0391397699713707, 0.03305560722947121], [-0.04663313180208206, 0.03016645647585392, 0.034482941031455994, 0.002467710990458727], [0.03998474404215813, -0.0007353028631769121, 0.05607409402728081, -0.022073518484830856], [-0.00043999089393764734, -0.04431920498609543, 0.01896103471517563, 0.03896589204668999], [-0.004573746118694544, 0.003652378683909774, -0.01102468278259039, -0.04135163873434067], [0.023851172998547554, 0.024711310863494873, 0.015296099707484245, 0.027377311140298843], [0.016846979036927223, -0.053109750151634216, -0.016335133463144302, 0.02163500338792801], [0.01949019357562065, 0.05293476954102516, 0.0500354990363121, -0.05377834662795067], [0.026699690148234367, 0.010296791791915894, 0.06370995193719864, -0.03801934793591499], [0.007389025762677193, -0.03506794199347496, 0.009045564569532871, 0.017758185043931007], [0.037036195397377014, -0.01627541519701481, 0.004579563159495592, 0.050718408077955246], [0.027055790647864342, -0.03157399967312813, 0.05181580409407616, 0.02834133803844452], [0.042630571871995926, 0.03272697329521179, 0.021649528294801712, -0.015300363302230835], [-0.0406915508210659, -0.05246474966406822, 0.004706502426415682, 0.008627332746982574], [-0.007333947811275721, 0.010013626888394356, 0.006948023568838835, -0.0667930617928505], [0.014293214306235313, -0.04870693013072014, -0.013588634319603443, -0.015147140249609947], [0.002880239160731435, 0.029785610735416412, -0.007608226966112852, 0.04573593661189079], [-0.046516355127096176, 0.007886488921940327, -0.0180753655731678, 0.0328478179872036], [0.03470679000020027, 0.005264197010546923, -0.03577997162938118, 0.04546324163675308], [0.020863117650151253, -0.03731484338641167, -0.052099864929914474, 0.06445660442113876], [0.01340667437762022, 0.06292285770177841, -0.02775975689291954, -0.021195583045482635], [-0.027953699231147766, 0.02594769187271595, -0.042955074459314346, -0.0035389980766922235], [-0.0025957224424928427, 0.0005544892628677189, -0.0047517879866063595, 0.02127712219953537], [-0.0016504832310602069, 0.041718292981386185, -0.025492418557405472, -0.06301190704107285], [0.003578728064894676, -0.0280319694429636, -0.041590768843889236, 0.05499262362718582], [0.02657490037381649, 0.0048050666227936745, 0.013646271079778671, 0.038848016411066055], [0.023612109944224358, 0.06392784416675568, 0.019523225724697113, 0.014228351414203644], [0.039135631173849106, -0.051149480044841766, -0.000975553528405726, 0.04900537431240082], [-0.0006013911333866417, -0.04843169078230858, -0.015158319845795631, 0.0017630232032388449], [0.013944706879556179, 0.062462083995342255, 0.03808194026350975, 0.022839773446321487], [0.03651915118098259, 0.004762355703860521, -0.05852806195616722, 0.0007895962335169315], [-0.00031748178298585117, 0.03177345171570778, -0.005498101469129324, 0.06831824034452438], [0.004274238832294941, 0.009633239358663559, -0.011109955608844757, 0.002387212822213769], [0.0568373017013073, -0.009595143608748913, -0.010558447800576687, -0.025577375665307045], [-0.03800554201006889, -0.0014391709119081497, -0.06002526357769966, 0.05141279473900795], [0.01725279726088047, 0.056493837386369705, -0.01619056798517704, 0.0245789997279644], [0.049965474754571915, -0.059569697827100754, 0.018248561769723892, 0.019741026684641838], [-0.02433631755411625, 0.003104103496298194, -0.05305040255188942, -0.012358905747532845], [0.035339053720235825, 0.05416787043213844, -0.008464967831969261, -0.0066793193109333515], [-0.023636382073163986, -0.05351223424077034, -0.028393451124429703, 0.056342415511608124], [-0.00043899755110032856, 0.003107798984274268, -0.03542720153927803, 0.005777640733867884], [0.025912931188941002, 0.03265240043401718, 0.06664406508207321, 0.027540478855371475], [-0.020575817674398422, -0.006295118946582079, -0.006210355553776026, 0.022963205352425575], [0.01159494649618864, -0.04782768711447716, -0.060171227902173996, -0.003985059447586536], [-0.014501295052468777, 0.050991516560316086, -0.02289813756942749, -0.00661928066983819], [0.024272669106721878, -0.004215250723063946, 0.02531207725405693, 0.019179323688149452], [0.047352034598588943, -0.04814324155449867, -0.06694857031106949, 0.054528702050447464], [0.013834702782332897, -0.003090284299105406, -0.021190907806158066, 0.030223138630390167], [0.022753754630684853, 0.030476083979010582, -0.035809095948934555, 0.031016623601317406], [-0.05028268322348595, 0.020194025710225105, 0.03181031346321106, -0.03824926167726517], [0.03460751846432686, 0.0015511021483689547, 0.004332609940320253, -0.03463136777281761], [0.02774372510612011, 0.0033519903663545847, -0.04741700366139412, 0.04507791996002197], [-0.03375988081097603, -0.04305033013224602, 0.032023295760154724, -0.0029255214612931013], [-0.010780003853142262, 0.016443349421024323, 0.05815375596284866, -0.040082063525915146], [-0.011880164034664631, 0.020424900576472282, -0.06151925027370453, 0.0574844554066658], [-0.0023888491559773684, 0.022254640236496925, 0.02746896632015705, -0.010229960083961487], [-0.027736684307456017, 0.026077691465616226, 0.016442321240901947, -0.04276252165436745], [0.018009116873145103, 0.0035822344943881035, -0.025837842375040054, -0.004402863793075085], [-0.06374896317720413, 0.023509813472628593, 0.03720416501164436, -0.005171645432710648], [0.01210752036422491, -0.03179650381207466, 0.03408757224678993, 0.025781333446502686], [0.030800998210906982, 0.016573185101151466, -0.06131565198302269, -0.008429254405200481], [-0.019623514264822006, 0.0132656991481781, 0.009983846917748451, -0.015810459852218628], [0.034612637013196945, -0.02161823958158493, 0.055076245218515396, 0.013878203928470612], [-0.02460094355046749, -0.04272918403148651, 0.01360978651791811, 0.0497681125998497], [-0.015161744318902493, 0.06785495579242706, 0.003694739658385515, 0.04099489748477936], [-0.017238682135939598, 0.016590382903814316, 0.0019389975350350142, -0.053238172084093094], [0.026715848594903946, -0.028919866308569908, -0.026018481701612473, 0.011081663891673088], [-0.02804875560104847, -0.05575880780816078, -0.003462325083091855, 0.04508526250720024], [0.01680811494588852, -0.006081396713852882, 0.008806777186691761, -0.022274617105722427], [0.004299766384065151, -0.017372651025652885, -0.001199197955429554, 0.04961227625608444], [0.013120877556502819, -0.014977715909481049, 0.002825692994520068, 0.055673714727163315], [-0.02240832708775997, 0.010003307834267616, -0.02865155041217804, -0.029903743416070938], [0.027281029149889946, -0.0031874848064035177, -0.009389519691467285, -0.014556515961885452], [-0.0006103237392380834, 0.021676409989595413, 0.010678950697183609, -0.029282143339514732], [-0.010684878565371037, 0.01505293883383274, 0.04223894327878952, -0.04013430327177048], [0.0590551421046257, 0.009314627386629581, -0.04755676910281181, 0.022820422425866127], [0.008519184775650501, -0.01677410863339901, -0.04007032886147499, 0.05268422141671181], [0.009873980656266212, -0.002493674634024501, 0.044114768505096436, -0.01514400728046894], [0.017210308462381363, -0.026821976527571678, 0.032345131039619446, 0.004069954622536898], [-0.0216920617967844, 0.009325024671852589, 0.059733301401138306, -0.0290121641010046], [-0.03243539482355118, -0.035941943526268005, 0.006650514900684357, 0.02947045862674713], [0.011773011647164822, 0.025632450357079506, -0.01742156222462654, 0.04931645467877388], [0.00033999947481788695, 0.012144775129854679, -0.07391761988401413, 0.016413958743214607], [0.06440184265375137, 0.021681664511561394, -0.004442967940121889, -0.02238113060593605], [0.033166076987981796, -0.0018400473054498434, -0.026897024363279343, -0.03846078738570213], [-0.00523251062259078, -0.020000191405415535, -0.05183606967329979, 0.013726460747420788], [-0.044289443641901016, -0.022540133446455002, 0.02918322943150997, 0.0007870230474509299], [-0.0036820084787905216, -0.0024340220261365175, -0.017821533605456352, 0.015224254690110683], [0.034754473716020584, 0.05197954550385475, 0.056719597429037094, -0.01641080528497696], [0.016072416678071022, 0.01146397739648819, 0.014632398262619972, -0.008254136890172958], [-0.009607633575797081, -0.03927970677614212, 0.023941608145833015, 0.04417572543025017], [-0.015218310989439487, -0.012235448695719242, -0.031920939683914185, -0.006471560802310705], [-0.05304180830717087, -0.03188261017203331, 0.02624410390853882, -0.012283515185117722], [0.025990717113018036, -0.012988264672458172, -0.01178665179759264, 0.013903526589274406], [0.017629973590373993, 0.04163961485028267, 0.0019315889803692698, 0.06113366410136223], [0.03541924059391022, 0.032297275960445404, -0.033477310091257095, -0.03092835657298565], [0.008515040390193462, -0.012486624531447887, -0.01590355858206749, 0.01950673945248127], [-0.03015182912349701, 0.003996127750724554, -0.025086410343647003, -0.005026498343795538], [-0.007746612187474966, 0.02924042008817196, 0.0358610525727272, -0.01542382687330246], [0.059887830168008804, -0.019726792350411415, -0.04883665218949318, -0.005075681023299694], [0.020430656149983406, -0.08180700242519379, -0.03777160495519638, 0.02201489917933941], [0.005688517354428768, -0.0017817695625126362, -0.007730982732027769, -0.028020326048135757], [-0.013741751201450825, -0.04512415826320648, 0.0013737387489527464, 0.0009043915197253227], [-0.038194939494132996, -0.017523741349577904, 0.02313476987183094, 0.06297691911458969], [0.018199646845459938, 0.017424486577510834, 0.04099253937602043, -0.036723095923662186], [0.047443974763154984, -0.018911199644207954, 0.02977491170167923, 0.0046299900859594345], [0.02617316134274006, -0.03325297310948372, 0.025886526331305504, 0.0019069830887019634], [0.004610625095665455, 0.020024385303258896, 0.06345506757497787, -0.02217860147356987], [-0.009139119647443295, -0.02384353242814541, -0.03231751546263695, -0.015026018023490906], [-0.0379515066742897, -0.04168376699090004, -0.04462708905339241, -0.025252815335989], [-0.02909611351788044, 0.044874828308820724, 0.006672029849141836, -0.06606804579496384], [0.0010522374650463462, -0.05706409737467766, 0.0075234011746943, -0.002841235836967826], [0.0031956133898347616, 0.017496546730399132, -0.009269751608371735, 0.06571749597787857], [0.00013163374387659132, -0.006843923591077328, -0.025583866983652115, -0.0035605940502136946], [0.004706832580268383, -0.051117271184921265, -0.04233962669968605, 0.0034855150151997805], [0.007214496843516827, 0.010837698355317116, -0.05782981589436531, -0.0024554163683205843], [0.0015896469121798873, 0.06193764507770538, 0.034964147955179214, -0.011886194348335266], [0.04995991662144661, 0.033461738377809525, -0.02667221426963806, 0.04967908561229706], [0.02381211332976818, -0.014703629538416862, -0.060885343700647354, 0.03999074921011925], [-0.03924889490008354, 0.018486905843019485, 0.014628477394580841, -0.0328519232571125], [0.008673389442265034, 0.018056264147162437, -0.01045172568410635, -0.0027797657530754805], [0.04622374102473259, 0.019553309306502342, 0.02128993161022663, -0.006374724674969912], [0.019781911745667458, 0.02418571710586548, 0.05507706478238106, -0.06249019876122475], [-0.020128969103097916, 0.010015479288995266, -0.006468913052231073, 0.03557727485895157], [-0.030332272872328758, 0.02350795455276966, -0.03622302785515785, 0.0613710880279541], [-0.021748339757323265, 0.01346152275800705, -0.009094497188925743, 0.014162197709083557], [0.0062416428700089455, -0.05052533373236656, -0.026653915643692017, 0.06322215497493744], [-0.011478046886622906, 0.011750610545277596, -0.005869188811630011, 0.040132563561201096], [-0.03787822648882866, -0.009318752214312553, -0.00727642048150301, 0.00947488471865654], [0.012386375106871128, -0.011162173934280872, -0.026484820991754532, -0.02783512882888317], [0.01598779857158661, 0.033439893275499344, -0.04444551840424538, 0.0023411910515278578], [0.04487350210547447, -0.02419515885412693, -0.012160285376012325, -0.015393092297017574], [-0.012659416534006596, -0.027851179242134094, -0.024567976593971252, 0.0008630176889710128], [0.0060189939104020596, -0.004273495636880398, -0.019274715334177017, 0.027042636647820473], [-0.019011372700333595, 0.02634858712553978, 0.057702817022800446, 0.02371235564351082], [0.04711725190281868, 0.015367635525763035, 0.023055769503116608, -0.020226608961820602], [0.0029013361781835556, -0.000476907123811543, 0.051794931292533875, -0.038597311824560165], [-0.001742506748996675, 0.01351158693432808, 0.0029614956583827734, 0.03232013061642647], [-0.01643703691661358, -0.03794321417808533, -0.047162048518657684, 0.055830348283052444], [0.010144134983420372, 0.02933693490922451, 0.01711214892566204, -0.037783198058605194], [0.018060410395264626, 0.06098050996661186, 0.01151975616812706, 0.029143739491701126], [-0.021442951634526253, 0.019102754071354866, -0.0390944629907608, 0.0475672222673893], [0.001980962697416544, 0.03792018070816994, 0.03300951048731804, -0.03879963606595993], [0.0027262852527201176, 0.033796802163124084, -0.029428284615278244, 0.03592507168650627], [-0.01884695701301098, -0.04840366169810295, 0.021121332421898842, 0.0006704287952743471], [0.009146254509687424, 0.0024240436032414436, -0.022626223042607307, -0.022532787173986435], [-0.02793874777853489, -0.023575490340590477, -0.03256078064441681, -0.017153335735201836], [-0.027476143091917038, -0.0015496386913582683, -0.03794363886117935, 0.009939251467585564], [0.03136347606778145, 0.004128744825720787, 0.03731217235326767, -0.020572099834680557], [-0.009774651378393173, 0.009226568043231964, -0.036961544305086136, 0.011862336657941341], [0.02657344937324524, -0.009692520834505558, -0.04810890555381775, 0.015870269387960434], [-0.019748220220208168, 0.010998913086950779, 0.03002547286450863, -0.01325167715549469], [0.05807332322001457, -0.028527963906526566, 0.005638549569994211, -0.006903879344463348], [0.01955242268741131, -0.01849689893424511, -0.0042775715701282024, -0.001563893398270011], [-0.0228459220379591, 0.022206813097000122, 0.006894784513860941, 0.00035361043410375714], [-0.023359421640634537, -0.016734132543206215, -0.015296116471290588, 0.009076637215912342], [-0.009308543987572193, 0.009400574490427971, -0.02224225178360939, -0.006849826779216528], [0.005474889185279608, -0.01268454547971487, 0.025827717036008835, 0.007859734818339348], [0.011702864430844784, -0.03205344080924988, -0.03884092718362808, 0.026497898623347282], [0.015250852331519127, -0.032745521515607834, -0.040823426097631454, 0.03656024485826492], [-0.009136002510786057, 0.03426841273903847, 0.04152507334947586, -0.031788866966962814], [0.017117716372013092, -0.03228600323200226, -0.048807237297296524, 0.018780862912535667], [0.009840916842222214, -0.031038843095302582, -0.03274271637201309, 0.00589788518846035], [-0.015840793028473854, 0.031838543713092804, 0.03012556955218315, -0.009820668958127499], [0.0003247233107686043, -0.02834177576005459, -0.01660393550992012, 0.023243658244609833], [-0.0005256798467598855, -0.03120250627398491, -0.02853209339082241, 0.018092911690473557], [0.0017149974592030048, 0.030596988275647163, 0.028530944138765335, -0.02262604609131813], [-0.015191120095551014, -0.03043144755065441, -0.05663399025797844, 0.02765742316842079], [-0.012650266289710999, -0.029504869133234024, -0.03725230693817139, 0.03661350905895233], [0.01178056187927723, 0.02580469660460949, 0.04353424906730652, -0.0294819176197052], [-0.025334695354104042, 0.015434643253684044, -0.015839984640479088, 0.019676396623253822], [-0.028258657082915306, 0.021350504830479622, -0.03437742590904236, 0.009626978076994419], [0.029922455549240112, -0.01698111928999424, 0.02537975274026394, -0.016909031197428703], [0.012472710572183132, -0.014961855486035347, -0.004101849161088467, 0.021145276725292206], [0.006624910514801741, -0.01270636823028326, 0.003254830138757825, 0.016859732568264008], [-0.010781259275972843, 0.015652745962142944, -0.0015575658762827516, -0.012991948053240776], [0.020792223513126373, 0.008564643561840057, -0.03834756836295128, -0.016072139143943787], [0.031399331986904144, 0.002587653463706374, -0.041532594710588455, -0.015804802998900414], [-0.029041830450296402, -0.008362853899598122, 0.04288443922996521, 0.012148200534284115], [-0.006191096734255552, -0.028163351118564606, -0.017849452793598175, 0.018376126885414124], [-0.0012305791024118662, -0.014612244442105293, 0.004830860998481512, 0.020017698407173157], [0.0034329828340560198, 0.017797553911805153, 0.003814214840531349, -0.017916029319167137], [0.02925664745271206, -0.00816397462040186, -0.02432413399219513, 0.019478783011436462], [-0.0012718637008219957, -0.02211560495197773, -0.04210440441966057, 0.010404768399894238], [-0.003028811886906624, 0.021257543936371803, 0.032698456197977066, -0.014684349298477173], [-0.015361549332737923, -0.003695060731843114, 0.03446005657315254, 0.009959062561392784], [0.003226695116609335, 0.005797595251351595, 0.024467317387461662, 0.013732045888900757], [-0.002298162318766117, -0.004767886362969875, -0.03298380225896835, -0.01273855660110712], [-0.016478171572089195, -0.010188156738877296, -0.03430178388953209, 0.03834168612957001], [0.011076110415160656, -0.014251289889216423, -0.039405737072229385, 0.0033347748685628176], [-0.01629558764398098, 0.014926550909876823, 0.05759042873978615, 0.002735591260716319], [0.013483937829732895, -0.0047023179940879345, 0.005096275359392166, -0.002572513185441494], [-0.014522445388138294, 0.03195791319012642, 0.0007507375557906926, 0.02106676995754242], [0.02938692644238472, -0.02932177670300007, -0.003829417983070016, -0.037453509867191315], [-0.0016542273806408048, 0.047994960099458694, -0.02166564390063286, -0.0662800595164299], [-0.03170820698142052, 0.03594367951154709, -0.04500908777117729, 0.02833220176398754], [-0.026972386986017227, 0.002298246370628476, 0.0029953508637845516, -0.007621420081704855], [-0.04042794927954674, -0.03214898705482483, 0.020025499165058136, -0.027094900608062744], [0.030741889029741287, -0.0543275885283947, -0.020700283348560333, 0.051443349570035934], [-0.0404072031378746, 0.03325508162379265, -0.029864205047488213, -0.03091539815068245], [-0.008772238157689571, -0.01701304316520691, 0.041861120611429214, -0.01999184861779213], [0.06317419558763504, -0.018593115732073784, 0.005171742755919695, 0.06017037481069565], [0.02716745249927044, 0.012602532282471657, -0.03337784484028816, 0.01743651181459427], [-0.02113245613873005, 0.03977068141102791, 0.03935438022017479, -0.06044081971049309], [0.051586080342531204, -0.04073140025138855, -0.06394598633050919, 0.0660836398601532], [0.0005616889684461057, -0.009374462068080902, 0.016567666083574295, 0.01607932522892952], [0.0009982259944081306, -0.030060231685638428, 0.03688203915953636, -0.04687798395752907], [0.0374416746199131, -0.030196385458111763, -0.014834877103567123, 0.045856773853302], [-0.004061889369040728, 0.0407894141972065, -0.02511635608971119, 0.014221757650375366], [-0.012079325504601002, 0.032110199332237244, -0.021821696311235428, -0.02231793850660324], [-0.00346958264708519, -0.012126886285841465, 0.020295459777116776, 0.05256988853216171], [0.03946489468216896, 0.041646797209978104, -0.062122371047735214, 0.0629483163356781], [-0.04060499742627144, 0.0016828945372253656, 0.038845885545015335, -0.034957241266965866], [0.00625229999423027, -0.046704910695552826, 0.003718969179317355, 0.063689224421978], [0.05994100123643875, -0.018532132729887962, -0.07358113676309586, 0.03882193565368652], [0.002241125563159585, 0.007113694213330746, 0.06080906465649605, -0.022752273827791214], [-0.01810898445546627, -0.014830922707915306, -0.014038525521755219, 0.03133731335401535], [-0.03153274208307266, 0.0055039445869624615, 0.018526408821344376, -0.0372660793364048], [-0.036701053380966187, -0.02400452457368374, 0.02138177491724491, -0.0463448241353035], [-0.008296934887766838, -0.028795164078474045, 0.0165287833660841, 0.049030620604753494], [-0.0038654932286590338, 0.015772821381688118, -0.018706608563661575, -0.028194407001137733], [0.020336918532848358, 0.05721890926361084, -0.019507458433508873, -0.018630225211381912], [-0.03464226797223091, 0.02312491647899151, -0.0486178956925869, -0.021140683442354202], [0.0378137081861496, -0.023446504026651382, 0.03515215590596199, 0.02831198088824749], [0.004117674194276333, 0.02644498087465763, -0.015204033814370632, 0.006423821207135916], [-0.01252568420022726, 0.005921619478613138, -0.016488557681441307, 0.03269853815436363], [0.016593417152762413, -0.004659449215978384, 0.013749090023338795, -0.029301630333065987], [0.02454701066017151, -0.015247590839862823, 0.024110499769449234, 0.017965566366910934], [0.02739616110920906, 0.0009006333420984447, 0.003957089502364397, -0.0036672810092568398], [-0.027307353913784027, 0.0008000189554877579, -0.004902905318886042, 0.010736124590039253], [0.0005610299995169044, -0.002336369827389717, -0.02353413961827755, 0.005231266841292381], [0.01236260961741209, -0.0321534164249897, -0.028205012902617455, 0.0205380916595459], [-0.01371911633759737, 0.02814885973930359, 0.027427850291132927, -0.024458685889840126], [0.02163214050233364, 0.004463259130716324, -0.038872551172971725, -0.01199485082179308], [0.015802806243300438, 0.011685239151120186, -0.027603181079030037, -0.002261341316625476], [-0.016597626730799675, -0.010495048947632313, 0.030224371701478958, 0.001061200280673802], [0.004288137424737215, 0.004002387169748545, -0.03551139310002327, 0.0031951444689184427], [0.005485910456627607, 0.0038028769195079803, -0.03277161717414856, 0.007185642141848803], [-0.004876572173088789, -0.003507529152557254, 0.03166072443127632, -0.006468529347330332], [0.002914074808359146, 0.01599319465458393, 0.012188656255602837, -0.011313600465655327], [0.00305549637414515, 0.016542883589863777, 0.015489188022911549, -0.012015444226562977], [-0.0026694857515394688, -0.016732627525925636, -0.01478113979101181, 0.011762659065425396], [0.009150662459433079, 0.014814849011600018, 0.007812055293470621, -0.045847292989492416], [0.006617494393140078, 0.014763213694095612, 0.006865943782031536, -0.046868499368429184], [-0.007339919917285442, -0.014662913046777248, -0.0074094380252063274, 0.046891335397958755], [0.0079005416482687, 0.00660348916426301, -0.002165926620364189, -0.009688982740044594], [0.008788798935711384, 0.006633331533521414, -0.00114442128688097, -0.008553653955459595], [-0.00823464896529913, -0.006886632181704044, 0.0011710838880389929, 0.008418402634561062], [0.013842137530446053, -0.007704447954893112, 0.027996327728033066, -0.007699521724134684], [0.012527002952992916, -0.007656519766896963, 0.02805083431303501, -0.007019062992185354], [-0.012935871258378029, 0.007665054406970739, -0.028279103338718414, 0.007662268355488777], [0.0058643692173063755, 0.005431723780930042, -0.013331017456948757, -0.007612433284521103], [0.005680241156369448, 0.005169032607227564, -0.012186809442937374, -0.007634298875927925], [-0.005547532811760902, -0.005162459798157215, 0.01241444330662489, 0.007551094051450491], [0.020178409293293953, 0.025555996224284172, 0.014457441866397858, -0.009108309634029865], [0.019347641617059708, 0.0261334627866745, 0.014699622057378292, -0.007235085591673851], [-0.019256185740232468, -0.026048244908452034, -0.015189972706139088, 0.008744695223867893], [-0.011696973815560341, 0.019255617633461952, -0.03873224928975105, 0.014062396250665188], [-0.012320660054683685, 0.019874094054102898, -0.03889506310224533, 0.01335971336811781], [0.012187403626739979, -0.019763413816690445, 0.038851335644721985, -0.014171978458762169], [-0.009252436459064484, -0.016512952744960785, 0.026911353692412376, 0.005821436643600464], [-0.008935223333537579, -0.01772298663854599, 0.02796308323740959, 0.0048570153303444386], [0.009318008087575436, 0.01734977960586548, -0.027090707793831825, -0.005202905740588903], [0.0143204964697361, 0.006364275235682726, -0.009535267949104309, 0.02161715365946293], [0.01286070141941309, 0.006716846954077482, -0.00679743941873312, 0.018461866304278374], [-0.01324271410703659, -0.006750921718776226, 0.006655460223555565, -0.018568633124232292], [-0.02790842391550541, 0.033891573548316956, 0.0002508634643163532, -0.030142713338136673], [-0.026091596111655235, 0.039192721247673035, 0.002862294903025031, -0.024537531659007072], [0.02615850791335106, -0.03827746957540512, -0.0027602645568549633, 0.02463710866868496], [-0.015752825886011124, -0.020201334729790688, -0.024099139496684074, 0.020709123462438583], [-0.015323794446885586, -0.02354525402188301, -0.01734037511050701, 0.011343840509653091], [0.015432395972311497, 0.022577140480279922, 0.018761303275823593, -0.011924615129828453], [0.008419539779424667, -0.018550924956798553, 0.003667319193482399, 0.009268057532608509], [0.0030003064312040806, -0.014752620831131935, -0.0056271725334227085, 0.00989161990582943], [-0.004085559863597155, 0.015993177890777588, 0.0026941937394440174, -0.009307925589382648], [0.001484968583099544, 0.004524804651737213, -0.05236714333295822, 0.030177826061844826], [0.0072399466298520565, 0.002455288777127862, -0.03414371237158775, 0.04091603681445122], [-0.0060537951067090034, -0.002684264210984111, 0.038637351244688034, -0.03696928918361664], [0.03944392129778862, -0.022793706506490707, 0.0023908272851258516, -0.003810781054198742], [0.024134434759616852, -0.01325234118849039, -0.0049747927114367485, -0.016571473330259323], [-0.02214678004384041, 0.010186334140598774, 0.009363876655697823, -0.0029164424631744623], [0.04577251151204109, -0.004143832251429558, -0.0221380814909935, -0.023188762366771698], [0.025165988132357597, -0.026632003486156464, -0.02500704862177372, 0.021488985046744347], [0.0019282301655039191, 0.019836165010929108, 0.05908656492829323, -0.01340293325483799], [-0.03078610636293888, -0.0022451719269156456, 0.022707726806402206, -0.06616843491792679], [0.04853660985827446, -0.004109840840101242, -0.05950549617409706, 0.04109020531177521], [0.010192745365202427, -0.0025800897274166346, -0.05391198769211769, 0.057432468980550766], [0.015053429640829563, 0.023142240941524506, 0.03886827453970909, 0.01567922718822956], [0.021288592368364334, -0.05744084715843201, -0.06935841590166092, -0.011460626497864723], [0.03228158876299858, 0.03970828279852867, -0.011288575828075409, -0.01031380146741867], [-0.034111615270376205, 0.02448539063334465, 0.041372548788785934, -0.036439526826143265], [-0.013655026443302631, -0.05238180607557297, -0.051126014441251755, 0.06678921729326248], [0.044925760477781296, 0.026293495669960976, -0.019647588953375816, -0.01951497048139572], [0.03653273358941078, 0.0071166642010211945, 0.04011373594403267, -0.03685552254319191], [0.033479463309049606, -0.028259510174393654, -0.04115210101008415, 0.05150006711483002], [-0.003047819482162595, -0.05505115166306496, -0.059730228036642075, -0.009325001388788223], [0.03526473417878151, -0.015781231224536896, 0.001860419986769557, -0.03762407973408699], [0.05032574012875557, 0.003852969268336892, -0.044716913253068924, 0.025037163868546486], [0.003213108517229557, -0.026037106290459633, 0.011801629327237606, 0.0756845772266388], [-0.03415590524673462, 0.008080107159912586, -0.028213463723659515, -0.01256018877029419], [0.08018872141838074, -0.014905044808983803, -0.046508707106113434, 0.010608283802866936], [-0.02342906966805458, 0.02270951122045517, 0.03097374550998211, -0.011785658076405525], [0.0018397837411612272, -0.004040778614580631, -0.011391806416213512, 0.02612169459462166], [-0.013531270436942577, 0.027705267071723938, -0.02761518768966198, 0.03411547839641571], [0.03629405423998833, -0.025526631623506546, 0.04945198819041252, -0.034139059484004974], [-0.02104441449046135, -0.013792679645121098, -0.009071591310203075, -0.03661942481994629], [0.02059943415224552, 0.008198630064725876, 0.010430420748889446, -0.03614552319049835], [-0.03086690977215767, 0.0076367794536054134, 0.004781296011060476, 0.04735014587640762], [0.014431661926209927, 0.03315453603863716, -0.0062057944014668465, 0.021712064743041992], [0.01956850476562977, 1.8584138160804287e-05, 0.006102040875703096, -0.015066642314195633], [-0.017880847677588463, -0.008122075349092484, -0.009087943471968174, -1.3590949492936488e-05], [-0.020070446655154228, -0.006515825167298317, -0.0028823371976614, 0.015270148403942585], [-0.012380856089293957, 0.01506764069199562, 0.007666246499866247, 0.03511494770646095], [0.01279151625931263, -0.01235908456146717, -0.0038878892082720995, -0.03338249772787094], [0.03654440864920616, 0.006319635547697544, -0.02395060285925865, 0.0337110199034214], [0.026395080611109734, 0.003386277472600341, -0.02717701531946659, 0.0160796120762825], [-0.02757999859750271, -0.0038025646936148405, 0.026761487126350403, -0.015365404076874256], [-0.009462283924221992, -0.0025969394482672215, 0.01738688163459301, 0.002498685149475932], [-0.008247341960668564, -0.00786188617348671, 0.0125611312687397, -0.02138948254287243], [0.008754381909966469, 0.007543814368546009, -0.012323168106377125, 0.01997438445687294], [0.037307579070329666, -0.005033993627876043, 0.022901369258761406, -0.02436429262161255], [0.038619641214609146, -0.005004226230084896, 0.010893566533923149, -0.02051866054534912], [-0.03874087333679199, 0.005285103339701891, -0.011053071357309818, 0.019823377951979637], [-0.01107912790030241, 0.012322379276156425, 0.002953913062810898, -0.015643037855625153], [-0.01090538501739502, 0.009584855288267136, 0.00436810776591301, -0.011501460336148739], [0.011028291657567024, -0.00997762568295002, -0.004572364501655102, 0.01211165264248848], [-0.005799274425953627, 0.006874154321849346, 0.0011457470245659351, -0.01718646101653576], [-0.00280020828358829, 0.007729331962764263, 0.0016629431629553437, -0.016604317352175713], [0.003486991859972477, -0.007343906909227371, -0.0013086453545838594, 0.016863055527210236], [0.0301801897585392, -0.025237007066607475, -0.0019976794719696045, 0.0021263982634991407], [0.026833251118659973, -0.02619735337793827, -0.0052857669070363045, 0.0028243365231901407], [-0.0277531910687685, 0.025730662047863007, 0.004613874480128288, -0.0032982113771140575], [0.012944222427904606, 0.031550321727991104, -0.03738585487008095, -0.028098776936531067], [0.0155255775898695, 0.031231019645929337, -0.03615635633468628, -0.027439244091510773], [-0.014955274760723114, -0.030947979539632797, 0.03586258366703987, 0.027963165193796158], [0.011167867109179497, -0.008300192654132843, -0.04401450976729393, 0.0041622743010520935], [0.011220754124224186, -0.008911130018532276, -0.043817371129989624, 0.0029628064949065447], [-0.011370230466127396, 0.008690298534929752, 0.042858466506004333, -0.0033773279283195734], [0.010516817681491375, -0.0020910296589136124, 0.009166387841105461, -0.014790194109082222], [0.011120406910777092, -0.0033287364058196545, 0.010693343356251717, -0.014561365358531475], [-0.01056270208209753, 0.00288558891043067, -0.010331285186111927, 0.014973669312894344], [-0.014180824160575867, -0.016872212290763855, -0.02582073025405407, -0.013683666475117207], [-0.014615644700825214, -0.017538780346512794, -0.024783777073025703, -0.01272823940962553], [0.014431258663535118, 0.017342666164040565, 0.024288447573781013, 0.013467985205352306], [0.02747015655040741, 0.024216989055275917, -0.01434196438640356, 0.004943061154335737], [0.025138141587376595, 0.025773288682103157, -0.012350780889391899, 0.008464176207780838], [-0.02578311413526535, -0.0254477821290493, 0.013287406414747238, -0.00875287875533104], [0.01683979667723179, -0.03010796755552292, 0.030489899218082428, -0.03972835838794708], [0.0146018723025918, -0.030438067391514778, 0.02871217206120491, -0.032764509320259094], [-0.014326737262308598, 0.030419114977121353, -0.029240215197205544, 0.032980598509311676], [-0.009480019100010395, -0.0013541681692004204, -0.004637880716472864, 0.006106173619627953], [-0.017079666256904602, -0.00938034150749445, -0.009499109350144863, -0.0039314343594014645], [0.01683548279106617, 0.009077956900000572, 0.009540542960166931, 0.002991683315485716], [-0.006035461090505123, 0.0028979636263102293, -0.0013562928652390838, -0.02844521775841713], [-0.0066017708741128445, 0.0023896244820207357, -0.010860614478588104, -0.014275734312832355], [0.006270864978432655, -0.002332855947315693, 0.009817334823310375, 0.015130252577364445], [0.02173863910138607, 0.003301804419606924, -0.025826256722211838, 0.03204118460416794], [0.023762593045830727, 0.0009609387489035726, -0.01951933652162552, 0.031682681292295456], [-0.022971466183662415, -0.0011869804002344608, 0.02026427537202835, -0.03139038756489754], [-0.013586195185780525, -0.012006040662527084, -0.03173957020044327, -0.01883883960545063], [-0.012163807637989521, -0.01454885397106409, -0.038832761347293854, -0.019907644018530846], [0.011329999193549156, 0.01372868288308382, 0.03657916188240051, 0.017464708536863327], [0.0074540129862725735, 0.0022025469224900007, -0.011350228451192379, 0.05881810560822487], [0.008235319517552853, -0.011345776729285717, 0.005708128213882446, 0.03232758492231369], [-0.011185056529939175, 0.011673967353999615, -0.002335461089387536, -0.023659255355596542], [-0.032982900738716125, -0.004205822478979826, 0.0217980295419693, -0.04677055403590202], [0.004695356357842684, -0.003768836846575141, -0.057728491723537445, -0.0021111597307026386], [0.017212584614753723, -0.006401329766958952, 0.049151740968227386, 0.024967847391963005], [0.024374915286898613, 0.02925809659063816, 0.04441105201840401, -0.048868048936128616], [0.015054362826049328, -0.05691133067011833, -0.014101709239184856, 0.014490922912955284], [-0.032389599829912186, -0.06083191558718681, -0.0735064297914505, -0.005422429647296667], [-0.02037672884762287, -0.022965624928474426, 0.022108294069767, 0.022647324949502945], [-0.004903571680188179, -0.045548781752586365, 0.019023995846509933, 0.04171338677406311], [0.03618553280830383, 0.035728778690099716, -0.0024372402112931013, -0.005181985441595316], [0.030460050329566002, -0.02399459108710289, 0.04149894043803215, -0.027296077460050583], [0.028355170041322708, -0.02705676294863224, -0.03720000013709068, -0.015395605936646461], [0.019234659150242805, 0.003110782941803336, -0.05319596454501152, 0.016191033646464348], [0.04753885045647621, 0.00967073068022728, 0.017388656735420227, -0.04913634434342384], [0.05229366198182106, -0.06394896656274796, 0.02441435679793358, -0.0095790084451437], [0.02301507256925106, -0.04803414270281792, -0.043450240045785904, 0.01678464375436306], [-0.007522545754909515, 0.008058978244662285, 0.02539718709886074, -0.04903022199869156], [0.030266910791397095, -0.0036145003978163004, -0.0168754942715168, 0.0032502978574484587], [0.045070335268974304, 0.008436812087893486, -0.019619887694716454, 0.051943495869636536], [-0.0030000624246895313, 0.05361354351043701, -0.034040771424770355, -0.03822838142514229], [0.004457032307982445, -0.03407558053731918, -0.07006161659955978, -0.012627126649022102], [0.009477555751800537, -0.06059488654136658, -0.019472207874059677, 0.04932164028286934], [-0.011982557363808155, 0.011223560199141502, 0.012959487736225128, 0.015122632496058941], [0.02502654492855072, -0.03983578085899353, 0.0038241154979914427, -0.027642281726002693], [-0.014474461786448956, 0.022994084283709526, -0.021189376711845398, 0.007404824253171682], [0.023951780050992966, -0.004581364803016186, 0.016300076618790627, 0.011410525999963284], [0.007750285789370537, -0.01369619369506836, 0.0059263138100504875, 0.04776148498058319], [-0.005426415707916021, 0.014187352731823921, -0.013412694446742535, -0.034825701266527176], [-0.002719217911362648, -0.027506660670042038, 0.003746993374079466, 0.02384885586798191], [0.006905685178935528, 0.0006188908009789884, -0.02042189985513687, 0.040578443557024], [-0.009391807951033115, 0.0034822726156562567, 0.024003030732274055, -0.03934080898761749], [-0.01650562882423401, -0.01032261922955513, -0.0015714442124590278, -0.004239682573825121], [-0.012348495423793793, -0.029864804819226265, 0.009602115489542484, 0.005369516089558601], [0.013331004418432713, 0.02837975323200226, -0.007961777970194817, -0.004250876605510712], [0.05237111449241638, -0.039428167045116425, 0.004833339247852564, 0.0037704831920564175], [0.03808123990893364, -0.02606840617954731, 0.00854732096195221, -0.009997990913689137], [-0.03823750093579292, 0.026440268382430077, -0.009180299937725067, 0.009726276621222496], [-0.006747164763510227, -0.043712444603443146, 0.008020341396331787, -0.05047544836997986], [-0.0040542855858802795, -0.0454280823469162, 0.02397979237139225, -0.04172072559595108], [0.003807086730375886, 0.045629192143678665, -0.024229658767580986, 0.042041629552841187], [0.009941007010638714, -0.014219283126294613, -0.007882166653871536, -0.02946832776069641], [0.007130576763302088, -0.013919847086071968, 0.0012381987180560827, -0.04101705923676491], [-0.0074280379340052605, 0.01395251415669918, -0.0007933625602163374, 0.041023749858140945], [-0.006160472985357046, -0.009102564305067062, -0.017776109278202057, -0.0031441575847566128], [-0.005648109596222639, -0.006077459082007408, -0.020814480260014534, -0.0017161504365503788], [0.005425708834081888, 0.006107467692345381, 0.020582396537065506, 0.0005559158744290471], [0.023074455559253693, 0.013675408437848091, 0.02553923800587654, -0.0027999677695333958], [0.023251162841916084, 0.014772612601518631, 0.028503451496362686, -0.0017917966470122337], [-0.022988976910710335, -0.014114860445261002, -0.02813136763870716, 0.0030867988243699074], [0.026956632733345032, 0.009193127043545246, 0.006047074217349291, 0.012460267171263695], [0.030121177434921265, 0.011313271708786488, 0.01093875989317894, 0.008789608255028725], [-0.02985374815762043, -0.011021125130355358, -0.009859414771199226, -0.010484406724572182], [-0.0019844318740069866, -0.023152491077780724, -0.03449516370892525, -0.010159182362258434], [-0.0050317938439548016, -0.021826356649398804, -0.036969803273677826, -0.00936573464423418], [0.0041882069781422615, 0.022353632375597954, 0.03511326387524605, 0.0117090018466115], [-0.0395309254527092, -0.021962102502584457, 0.002805509138852358, 0.01885385997593403], [-0.03811373561620712, -0.02106097713112831, 0.001441888976842165, 0.01777316816151142], [0.038982976227998734, 0.021530162543058395, -0.0012403058353811502, -0.01838359236717224], [-0.004263329319655895, -0.0038560801185667515, 0.003995336592197418, 0.01193429809063673], [-0.005505986511707306, -0.0028905151411890984, 0.0024377242662012577, 0.01300733257085085], [0.0046591442078351974, 0.002518008230254054, -0.003364305477589369, -0.011553208343684673], [-0.004669164773076773, -0.010265503078699112, -0.0019133994355797768, 0.011029496788978577], [-0.0043488466180861, -0.008204564452171326, -0.0027968729846179485, 0.006284189410507679], [0.004520313814282417, 0.00889848917722702, 0.0037913345731794834, -0.008479129523038864], [0.024507494643330574, -0.01587226428091526, 0.019447196274995804, -0.029296334832906723], [0.026564227417111397, -0.01828616112470627, 0.01970723271369934, -0.036442916840314865], [-0.026804205030202866, 0.018023310229182243, -0.019186995923519135, 0.035731829702854156], [0.005605042912065983, -0.009427422657608986, -0.017874808982014656, -0.00016674578364472836], [0.013218281790614128, -0.009739774279296398, -0.018845481798052788, -0.008524204604327679], [-0.01276655588299036, 0.00969365332275629, 0.018420804291963577, 0.008590945042669773], [-0.019055863842368126, -0.00727689266204834, -0.017748650163412094, -0.026008399203419685], [-0.012802652083337307, -0.0006497521535493433, -0.012424174696207047, -0.026402052491903305], [0.013052376918494701, 0.0008782539516687393, 0.012343327514827251, 0.026672614738345146], [-0.025439603254199028, -0.015869585797190666, -0.0014819662319496274, 0.029925856739282608], [-0.024753838777542114, -0.014564549550414085, 0.0014359200140461326, 0.025183245539665222], [0.02493763342499733, 0.014697277918457985, -0.0010111351730301976, -0.025293931365013123], [0.01435009203851223, -0.016065839678049088, -0.023009924218058586, -0.00925368256866932], [0.014947302639484406, -0.016124773770570755, -0.025860708206892014, -0.0029988556634634733], [-0.014713071286678314, 0.015950938686728477, 0.026168398559093475, 0.003447188762947917], [0.024685582146048546, -0.02280803583562374, 0.005790409166365862, -0.030923735350370407], [0.02234751172363758, -0.01960930973291397, 0.004877837374806404, -0.03793998435139656], [-0.02184520848095417, 0.02036043256521225, -0.003444768488407135, 0.0372818261384964], [-0.018465230241417885, -0.0026026428677141666, -0.05140354484319687, 0.0021287198178470135], [-0.0013506191316992044, 0.00118113006465137, -0.04667360335588455, 0.03849286586046219], [0.0030406422447413206, -0.0001467618130845949, 0.04721575975418091, -0.037140317261219025], [-0.005513964686542749, -0.02108897641301155, 0.0466826930642128, -0.00027476242394186556], [0.013021932914853096, 0.007496315520256758, -0.03149515762925148, -0.0017471833853051066], [-0.02361360564827919, -0.008982619270682335, 0.035593029111623764, -0.012892208062112331], [-0.013435379602015018, -0.017483830451965332, 0.05987229198217392, -0.005363206844776869], [0.04607183113694191, -0.055465467274188995, -0.063273124396801, -0.005533096380531788], [-0.02836674451828003, 0.027019288390874863, 0.038916803896427155, -0.009473354555666447], [0.0005136644467711449, -0.010949498042464256, 0.04757947847247124, -0.02567356452345848], [-0.038997720927000046, -0.0517195425927639, -0.008357133716344833, -0.0009261115337722003], [-0.019205735996365547, 0.009453432634472847, 0.05006881430745125, 0.026519957929849625], [-0.011659936048090458, 0.058838021010160446, 0.047778647392988205, -0.057172004133462906], [0.011487659998238087, -0.06412601470947266, -0.0060979933477938175, -0.0029223288875073195], [0.03437172621488571, -0.020945826545357704, -0.03014538623392582, -0.01711253449320793], [0.04200782999396324, 0.03915170952677727, 0.030466189607977867, 0.03186945989727974], [0.047739628702402115, -0.03139309212565422, 0.016669534146785736, -0.006122183054685593], [0.039909396320581436, -0.04408521577715874, -0.006656881887465715, -0.00697419373318553], [-0.011954663321375847, 0.04340176656842232, 0.04303695261478424, 0.023673534393310547], [0.04221281036734581, -0.006379830185323954, 0.02955164760351181, 0.04059497267007828], [-0.04087301716208458, -0.01825380139052868, 0.008000915870070457, 0.03961917757987976], [0.04598385840654373, -0.016758013516664505, 0.011835330165922642, -0.02443341352045536], [-0.011991881765425205, -0.008731132373213768, -0.06595061719417572, -0.006516095716506243], [-0.007952204905450344, 0.045226577669382095, 0.002622932428494096, 0.05110229179263115], [-0.0007498166523873806, -0.03468108922243118, 0.029116954654455185, -0.003760225372388959], [-0.014028974808752537, 0.02509072609245777, -0.023885322734713554, 0.03386973217129707], [-0.005258504766970873, -0.01957409642636776, 0.0343058705329895, 0.0021295377518981695], [0.006618058308959007, 0.024985473603010178, -0.022940006107091904, 0.004116054158657789], [-0.003935977350920439, 0.03238379955291748, 0.023759065195918083, -0.02564234472811222], [0.006074057426303625, -0.035302020609378815, -0.02128099463880062, 0.008949829265475273], [-0.009246263653039932, 0.03329014778137207, 0.00687723234295845, 0.06888296455144882], [-0.017819887027144432, 0.020914297550916672, -0.00929937232285738, 0.037292562425136566], [0.01675795018672943, -0.02109757624566555, 0.0052397241815924644, -0.03575301915407181], [-0.027262413874268532, 0.0076086013577878475, 0.0036540243308991194, -0.038125116378068924], [-0.016388287767767906, 0.010870411060750484, -0.008990290574729443, 0.012425298802554607], [0.0163243617862463, -0.010714015923440456, 0.008611862547695637, -0.012359709478914738], [-0.02855774201452732, -0.01106458529829979, -0.04812631756067276, -0.0019310053903609514], [-0.016561226919293404, -0.019626371562480927, -0.03790070116519928, 0.008563350886106491], [0.016665518283843994, 0.019238639622926712, 0.03926461935043335, -0.008075213991105556], [0.012276515364646912, -0.019154058769345284, 0.014080866239964962, -0.054027918726205826], [0.004364607390016317, -0.004111562855541706, -0.015404392965137959, -0.04094213247299194], [-0.0044565764255821705, 0.004069910384714603, 0.014607716351747513, 0.04060464724898338], [-0.011626317165791988, -0.002785295248031616, -0.01112461183220148, -0.038836147636175156], [-0.00928700901567936, -0.00136775232385844, -0.006874728947877884, -0.027168618515133858], [0.009304269216954708, 0.001434517209418118, 0.00778454402461648, 0.02754710055887699], [-0.02308921329677105, -0.017396390438079834, 0.05452550947666168, -0.023439012467861176], [-0.02407987415790558, -0.021244347095489502, 0.050787076354026794, -0.031722407788038254], [0.02407859079539776, 0.020755982026457787, -0.051728446036577225, 0.030693940818309784], [0.0046565942466259, 0.031267598271369934, 0.028529539704322815, -0.010417649522423744], [0.0032243661116808653, 0.028360718861222267, 0.025027405470609665, -0.008156104013323784], [-0.0033857778180390596, -0.029064446687698364, -0.025046808645129204, 0.008522029966115952], [-0.0005823354003950953, 0.007633966393768787, 0.024021493270993233, 0.0017329204129055142], [-0.001515642856247723, 0.005611772648990154, 0.020975742489099503, 0.0008560377173125744], [0.0024891721550375223, -0.0060470812022686005, -0.019488584250211716, -0.0030278312042355537], [-0.0010096024489030242, -0.022625459358096123, -0.00227752304635942, -0.01164103951305151], [-0.0005252824048511684, -0.02169773541390896, -0.005196134559810162, -0.008352963253855705], [0.0001652600330999121, 0.022111108526587486, 0.0035045561380684376, 0.009667983278632164], [-0.011456678621470928, -0.035367656499147415, -0.011171136982738972, 0.004733535461127758], [-0.011442619375884533, -0.03556661680340767, -0.009631062857806683, 0.006121859420090914], [0.012020605616271496, 0.035133492201566696, 0.009829937480390072, -0.005590266082435846], [0.01903262361884117, -0.031364016234874725, 0.0009093170519918203, 0.012945231050252914], [0.019995426759123802, -0.03169068694114685, -0.00041425289236940444, 0.015271330252289772], [-0.020059268921613693, 0.03178868442773819, 0.0008446206920780241, -0.01506682951003313], [-0.026981033384799957, -0.022547610104084015, -0.01837865635752678, 0.03396857902407646], [-0.0244761873036623, -0.025738416239619255, -0.018311351537704468, 0.03836861997842789], [0.02498275227844715, 0.02556055225431919, 0.018482280895113945, -0.038524430245161057], [-0.03956855833530426, 0.0142597621306777, -0.010208583436906338, -0.007308498024940491], [-0.040289703756570816, 0.017725879326462746, -0.01160794124007225, -0.0046735722571611404], [0.04072209447622299, -0.01732308231294155, 0.012196154333651066, 0.003401805879548192], [0.019238397479057312, 0.0064286463893949986, 0.029957082122564316, -0.02283516153693199], [0.014230508357286453, 0.007398465182632208, 0.029519185423851013, -0.015341023914515972], [-0.014456716366112232, -0.007576783187687397, -0.029472382739186287, 0.0156695619225502], [0.004917431157082319, 0.00915764831006527, -0.010505052283406258, -0.004165265709161758], [0.004210584796965122, 0.008866784162819386, -0.008243494667112827, -0.0022778466809540987], [-0.004691052716225386, -0.0087115578353405, 0.00852135382592678, 0.002871581120416522], [0.009119491092860699, -0.029331617057323456, -0.011619226075708866, -0.001961090136319399], [0.0065153115428984165, -0.02825300209224224, -0.0047857314348220825, -0.006155539304018021], [-0.007159225642681122, 0.02826603688299656, 0.005319633055478334, 0.006179457064718008], [-0.007221541367471218, -0.01556502003222704, 0.004775722976773977, 0.025455843657255173], [-0.008789591491222382, -0.01534871943295002, 0.010129588656127453, 0.012714888900518417], [0.008248649537563324, 0.015393470413982868, -0.0094387736171484, -0.013434537686407566], [0.012358976528048515, -0.031649552285671234, -0.0052765305154025555, 0.0411786213517189], [0.0012233555316925049, -0.028083452954888344, 0.00011758429172914475, 0.04072897881269455], [-0.0017015699995681643, 0.028364790603518486, -0.00055988336680457, -0.041286103427410126], [-0.00010725337051553652, -0.0002169488143408671, -0.012966570444405079, 0.023441681638360023], [-0.0015795290237292647, 0.0011355150490999222, -0.038229506462812424, 0.037559427320957184], [-0.00019429514941293746, -0.001480355393141508, 0.03356616199016571, -0.038934022188186646], [0.03721088171005249, 0.0006914610858075321, 0.021526914089918137, 0.010852303355932236], [0.005826918408274651, -0.05973859503865242, 2.7777095965575427e-05, -0.010764583013951778], [0.0039566089399158955, 0.060403838753700256, -0.02802536077797413, 0.02487165667116642], [0.015572809614241123, 0.015085281804203987, -0.021508928388357162, -0.01503491960465908], [0.03019547089934349, 0.028220374137163162, -0.05477814003825188, 0.01510139275342226], [-0.03199801594018936, 0.0050876084715127945, 0.042582809925079346, 0.020434211939573288], [-0.0451696552336216, -0.0010658733081072569, 0.021172229200601578, -0.0021825169678777456], [0.028400834649801254, -0.03033316135406494, -0.05689791962504387, 0.02316240593791008], [-0.035232361406087875, 0.053499139845371246, 0.003986864350736141, -0.02330915629863739], [0.039550069719552994, 0.021282736212015152, 0.06062743440270424, -0.030091727152466774], [0.003409141208976507, -0.03336455672979355, -0.006968528497964144, 0.029084328562021255], [0.012122943066060543, 0.002263258444145322, -0.03714112564921379, -0.022310800850391388], [0.02604050375521183, -0.00996083952486515, 0.03248876705765724, -0.020296648144721985], [0.015598134137690067, -0.04047591611742973, -0.025319859385490417, 0.012416120618581772], [-0.003563571022823453, -0.0021858944091945887, 0.009853560477495193, 0.03332555666565895], [-0.004007560666650534, 0.02122727409005165, 0.015160724520683289, -0.049980975687503815], [-0.02434135228395462, 0.008860211819410324, -0.028400789946317673, -0.006980028003454208], [0.023578358814120293, -0.02499612793326378, -0.015111255459487438, 0.013316834345459938], [-0.022071324288845062, -0.011696698144078255, 0.05338948592543602, -0.0034977386239916086], [0.005545917898416519, -0.011258675716817379, 0.033894192427396774, -0.030378617346286774], [-0.028489679098129272, 0.029751362279057503, -0.0293872207403183, -0.03042607381939888], [0.025197964161634445, 0.03792950510978699, -0.02034113183617592, -0.022567545995116234], [0.020420586690306664, -0.03369513154029846, 0.005212096497416496, -0.00360872526653111], [-0.017105527222156525, 0.03392857685685158, -0.02093813382089138, -0.011815864592790604], [0.029105162248015404, 0.026768138632178307, -0.006562297232449055, 0.008332147262990475], [0.014167978428304195, 0.009451457299292088, -0.022419238463044167, 0.03435098007321358], [-0.013599558733403683, -0.008466747589409351, 0.021622734144330025, -0.029162302613258362], [0.014435948804020882, 0.0011272565461695194, -0.07464437186717987, 0.0032545714639127254], [0.02514258772134781, 0.007181307766586542, -0.04992225021123886, 0.001849557040259242], [-0.024701829999685287, -0.00770151149481535, 0.048669133335351944, -0.0004349813098087907], [0.006858899258077145, 0.007589546963572502, -0.043356917798519135, 0.01723085343837738], [-0.0005031819455325603, -0.0006659645587205887, -0.04166937619447708, -0.010736293159425259], [0.0009974207496270537, 0.0008510529296472669, 0.04068890959024429, 0.010996459983289242], [-0.01038625743240118, -0.007392002269625664, 0.009224683977663517, 0.035588864237070084], [-0.02784022130072117, 0.01203060895204544, 0.010731369256973267, 0.002292417688295245], [0.02782818116247654, -0.011754724197089672, -0.010887066833674908, -0.0021349312737584114], [-0.03982799872756004, 0.029532724991440773, -0.030046019703149796, 0.0025969287380576134], [-0.02795291692018509, 0.008098863065242767, -0.02666652388870716, 0.00806775689125061], [0.028510818257927895, -0.008724666200578213, 0.026550831273198128, -0.007834112271666527], [-0.018387198448181152, -0.0034898649901151657, 0.0060269031673669815, -0.035913653671741486], [-0.024068264290690422, -0.0016449835384264588, -4.022702341899276e-05, -0.04374131187796593], [0.02361566759645939, 0.0012614818988367915, 0.0005491423653438687, 0.04403509199619293], [-0.01718861609697342, -0.0014963531866669655, 0.03608225658535957, -0.04115481674671173], [-0.015972713008522987, 0.002511403989046812, 0.039974138140678406, -0.039071667939424515], [0.015801994130015373, -0.0020503459963947535, -0.039379823952913284, 0.03908705338835716], [-0.009039007127285004, -0.007890326902270317, 0.003953135572373867, -0.023181593045592308], [-0.009558345191180706, -0.005690139252692461, 0.007641013246029615, -0.026926634833216667], [0.008989335969090462, 0.005936122499406338, -0.007909012027084827, 0.027010681107640266], [-0.0163994450122118, 0.021023619920015335, -0.01577664539217949, 0.009803729131817818], [-0.015598133206367493, 0.021799413487315178, -0.010930413380265236, 0.007427280303090811], [0.015333003364503384, -0.02198857069015503, 0.01207326166331768, -0.008333217352628708], [-0.02280670963227749, -0.002681692596524954, -0.00965399481356144, 0.026356516405940056], [-0.022783925756812096, -0.003328565740957856, -0.009251962415874004, 0.025762544944882393], [0.02277381345629692, 0.00346888555213809, 0.008697519078850746, -0.02543146163225174], [0.002073605079203844, 0.01299307495355606, -0.003461394226178527, -0.019371014088392258], [0.0031152518931776285, 0.01134010124951601, -0.004218229558318853, -0.019995562732219696], [-0.0029077178332954645, -0.011633320711553097, 0.00375776132568717, 0.020129891112446785], [-0.0005446547293104231, -0.0015999411698430777, -0.007693270221352577, -9.847459295997396e-05], [-0.0018208971014246345, -0.0018686670809984207, -0.007010985631495714, -0.0006988840759731829], [0.0014350111596286297, 0.001947943470440805, 0.006704880855977535, 0.0013476620661094785], [-0.023182004690170288, 0.008197844959795475, 0.014213884249329567, 0.010883678682148457], [-0.02534835785627365, 0.011128406040370464, 0.015740152448415756, 0.00689378147944808], [0.025323038920760155, -0.01101086474955082, -0.015678221359848976, -0.007357011083513498], [-0.027383260428905487, 0.02420130744576454, 0.009786421433091164, -0.0077241770923137665], [-0.02777724526822567, 0.021592414006590843, 0.012350264005362988, -0.009366792626678944], [0.02767336368560791, -0.021984418854117393, -0.011901809833943844, 0.00931643694639206], [-0.02875438891351223, -0.020646460354328156, -0.011669357307255268, -0.022304831072688103], [-0.028680559247732162, -0.021106844767928123, -0.010659931227564812, -0.024407953023910522], [0.02857539802789688, 0.021036121994256973, 0.01096142828464508, 0.02431575022637844], [-0.034865282475948334, -0.03450421988964081, 0.015805277973413467, -0.025555390864610672], [-0.0333978533744812, -0.03522853925824165, 0.013184999115765095, -0.021975167095661163], [0.033662278205156326, 0.03489727899432182, -0.013394583947956562, 0.021916601806879044], [-0.01733022928237915, -0.0017015059711411595, -0.010408099740743637, 0.008877983316779137], [-0.013448325917124748, -0.0023343218490481377, -0.01220290083438158, 0.0043273549526929855], [0.014480703510344028, 0.0020992972422391176, 0.01170913502573967, -0.004717293661087751], [0.0005511543131433427, -0.003947312477976084, 0.005816283170133829, -0.010817066766321659], [0.010728679597377777, -0.006560939364135265, 0.006812864914536476, -0.0064423223957419395], [-0.010233530774712563, 0.006071418523788452, -0.00799055490642786, 0.0074012125842273235], [-0.0004927184781990945, -0.019778940826654434, 0.003521745325997472, 0.019718371331691742], [-0.013672116212546825, -0.00908180233091116, -0.011126101948320866, 0.007835755124688148], [0.013761944137513638, 0.00918004009872675, 0.010130389593541622, -0.00747549207881093], [-0.0045649027451872826, 0.004369059577584267, -0.01979890838265419, 0.030320869758725166], [-0.030593525618314743, -0.008500244468450546, -0.013841996900737286, -0.000792316161096096], [0.03157994896173477, 0.008346918039023876, 0.015597259625792503, 0.0030543392058461905], [-0.040439631789922714, -0.012523235753178596, 0.016853857785463333, -0.0008946059388108552], [0.03457150235772133, -0.015271658077836037, -0.0015515984268859029, 0.016201967373490334], [-0.04046892747282982, 0.017931515350937843, 0.01877286657691002, -0.021779196336865425], [-0.03804366663098335, 0.05411634221673012, 0.06453589349985123, -0.06696119159460068], [0.05137081816792488, -0.024939866736531258, -0.008747879415750504, -0.0036815099883824587], [0.034918904304504395, -0.03910810127854347, -0.04178604111075401, -0.02087666094303131], [-0.031913526356220245, 0.0433531291782856, 0.05093726888298988, -0.023964282125234604], [0.025472894310951233, 0.022423909977078438, -0.02498418465256691, -0.01551854982972145], [0.004143615253269672, -0.028299400582909584, -0.024767307564616203, -0.01883893832564354], [-0.003912602551281452, 0.049089085310697556, 0.022615179419517517, -0.048642490059137344], [-0.0055782124400138855, -0.057251572608947754, -0.02854328230023384, 0.0368831530213356], [-0.03397383913397789, -0.04710305109620094, -0.06798876821994781, 0.012687116861343384], [0.004843404050916433, -0.0256651584059, 0.02023303508758545, -0.007343340199440718], [0.057398129254579544, -0.0026697979774326086, 0.02524937316775322, -0.029377741739153862], [-0.01152808591723442, 0.02434520237147808, -0.010384984314441681, 0.054607588797807693], [-0.005686781369149685, 0.039947669953107834, -0.0019168254220858216, -0.03605644032359123], [-0.0363672599196434, 0.022925175726413727, 0.028305549174547195, 0.04431017488241196], [0.02021246775984764, 0.01722058095037937, 0.026203803718090057, 0.00030238149338401854], [0.09033162146806717, 0.0020052136387676, 0.03814733028411865, 0.020695429295301437], [0.04085313528776169, -0.01555946096777916, 0.009900043718516827, 0.05955170467495918], [0.011258057318627834, -0.009969815611839294, -0.029988108202815056, -0.030621889978647232], [-0.020004233345389366, -0.03497586399316788, 0.01948278583586216, 0.0023379221092909575], [-0.009078663773834705, -0.013345309533178806, 0.03004380315542221, -0.02469482086598873], [0.007612206973135471, 0.01691318303346634, -0.028497908264398575, 0.027194460853934288], [-0.001396341249346733, -0.004519700072705746, 0.03254123404622078, 0.004070108290761709], [0.005263056606054306, 0.002441971329972148, 0.01266487780958414, 0.012451558373868465], [-0.005365082528442144, -0.002533599967136979, -0.012093347497284412, -0.01489674486219883], [0.007227634079754353, -0.003911498002707958, -0.026032766327261925, 0.018535133451223373], [0.025952253490686417, 0.034641414880752563, -0.026007255539298058, -0.003809832502156496], [-0.026643982157111168, -0.034128181636333466, 0.028015077114105225, 0.0029550110921263695], [0.019280802458524704, -0.006560764741152525, -0.005499882623553276, -0.023302236571907997], [0.011119925417006016, -0.023724231868982315, -0.005455113481730223, 0.011644751764833927], [-0.011536788195371628, 0.023601096123456955, 0.004943561740219593, -0.012333424761891365], [0.013215147890150547, -0.009952179156243801, 0.009053193964064121, 0.01226596999913454], [0.017366094514727592, -0.008660607039928436, -0.018196145072579384, 0.026013990864157677], [-0.017841573804616928, 0.009454911574721336, 0.018017522990703583, -0.02651721052825451], [0.022793278098106384, -0.004712394438683987, -0.0117573793977499, -0.016142865642905235], [0.01707940362393856, 0.015499351546168327, 0.0038894047029316425, -0.026445135474205017], [-0.016803009435534477, -0.014736340381205082, -0.0037915087305009365, 0.02646857500076294], [-0.03568831831216812, -0.010163447819650173, -0.020903805270791054, -0.04083453491330147], [-0.027339395135641098, -0.016667785122990608, -0.01667330414056778, -0.0417499765753746], [0.028052521869540215, 0.016269387677311897, 0.0166627150028944, 0.04186372831463814], [-0.005022948142141104, 0.02490357495844364, 0.02811172790825367, 0.008422216400504112], [-0.004939437843859196, 0.02287195436656475, 0.028603745624423027, 0.007995940744876862], [0.0050423224456608295, -0.023118305951356888, -0.028774559497833252, -0.008329660631716251], [0.0074134874157607555, -0.028087656944990158, -0.0032242522574961185, -0.019187018275260925], [0.00907579530030489, -0.02842804044485092, -0.005660100840032101, -0.014680189080536366], [-0.008454293943941593, 0.02864696830511093, 0.005784224718809128, 0.01583203114569187], [0.012737773358821869, -0.004772888030856848, -0.0030593376141041517, -0.022482065483927727], [0.011962974444031715, -0.004692355170845985, -0.0039604427292943, -0.023531004786491394], [-0.012565321289002895, 0.004794315434992313, 0.004628974478691816, 0.022434929385781288], [-0.03297645226120949, 0.006165224127471447, -0.005243667867034674, -0.004375468008220196], [-0.03324227035045624, 0.006991823669523001, -0.005646890494972467, -0.0030722636729478836], [0.03334304690361023, -0.006952301599085331, 0.0049320971593260765, 0.003606495913118124], [0.02042236551642418, -0.02963067591190338, -0.01729443669319153, 0.02254842035472393], [0.019035181030631065, -0.028070591390132904, -0.016425836831331253, 0.02474081516265869], [-0.019502712413668633, 0.02798277884721756, 0.017147207632660866, -0.02471807599067688], [0.012906039133667946, 0.0077989292331039906, -0.014453026466071606, -0.019385507330298424], [0.01417821180075407, 0.008567074313759804, -0.01668708212673664, -0.020082207396626472], [-0.01380605436861515, -0.008491686545312405, 0.016305847093462944, 0.019726257771253586], [-0.012885008007287979, -0.008457805030047894, 0.0445149764418602, -0.018773308023810387], [-0.011914379894733429, -0.00954858586192131, 0.04290711134672165, -0.01585727371275425], [0.012097678147256374, 0.009617182426154613, -0.042430564761161804, 0.015592264011502266], [0.03941488265991211, 0.006856108549982309, -0.017501255497336388, -0.046726152300834656], [0.03953222185373306, 0.007732901722192764, -0.018346155062317848, -0.04352056235074997], [-0.04001295194029808, -0.007340637035667896, 0.017966074869036674, 0.04391247034072876], [-0.00567645626142621, -0.0007210363983176649, -0.003865680890157819, 0.0025420382153242826], [-0.003973483107984066, -0.001760645187459886, -0.003257833421230316, 0.002358356723561883], [0.0040667313151061535, 0.0017013406613841653, 0.0035386637318879366, -0.0029261941090226173], [-0.010200543329119682, 0.04174743965268135, 0.04115109518170357, -0.024198589846491814], [-0.011260896921157837, 0.0412958599627018, 0.038966841995716095, -0.02436155267059803], [0.010949972085654736, -0.0407610647380352, -0.03945573791861534, 0.024453941732645035], [0.03488245606422424, -0.02147955447435379, 0.007936138659715652, -0.02523449994623661], [0.02395765110850334, -0.019388632848858833, 0.011952108703553677, -0.021371489390730858], [-0.025076961144804955, 0.02014073356986046, -0.01212059985846281, 0.021533844992518425], [0.019876807928085327, 0.011666906997561455, 0.01434986013919115, 0.030483387410640717], [0.020676374435424805, 0.01257397886365652, 0.02155713364481926, 0.021446071565151215], [-0.020716922357678413, -0.012420626357197762, -0.021051209419965744, -0.021681154146790504], [-0.039669692516326904, 0.006318942178040743, -0.010131525807082653, 0.05299561098217964], [-0.01519679557532072, 0.010219144634902477, -0.001511273323558271, 0.026232991367578506], [0.014990407042205334, -0.009999229572713375, 0.0022395288106054068, -0.025994187220931053], [0.00023322575725615025, -0.03483699634671211, 0.008785189129412174, -0.06346605718135834], [-0.011169210076332092, -0.02975647523999214, -0.0033681101631373167, -0.028961196541786194], [0.010772015899419785, 0.02934950962662697, 0.0031167587731033564, 0.028444798663258553], [0.019464241340756416, -0.04697996377944946, -0.026648979634046555, 0.026469459757208824], [0.010959871113300323, -0.0293012335896492, 0.007649463601410389, 0.03231777995824814], [0.008655767887830734, 0.03676534816622734, -0.013524758629500866, -0.06118664890527725], [-0.022104062139987946, 0.05536450818181038, 0.04193583130836487, 0.03163827583193779], [-0.004220660775899887, -0.046838823705911636, -0.0023293953854590654, -0.01871458999812603], [0.033875856548547745, -0.06470059603452682, -0.003147696377709508, 0.029050685465335846], [-0.010679938830435276, -0.016444094479084015, -0.0044075134210288525, 0.002850667340680957], [0.056226957589387894, -0.01745644025504589, -0.027727745473384857, 0.051719166338443756], [-0.04074503108859062, 0.02167830429971218, -0.037922780960798264, 0.06663038581609726], [0.024924261495471, 0.036008525639772415, 0.043257761746644974, -0.02376413345336914], [0.02331491932272911, -0.03563457727432251, 0.024800743907690048, 0.016268018633127213], [0.055010583251714706, 0.005345998331904411, -0.027233267202973366, -0.0016011057887226343], [0.023128056898713112, 0.013576392084360123, 0.009404581971466541, -0.0449785441160202], [-0.026731450110673904, -0.025182927027344704, -0.035760995000600815, -0.01250801607966423], [0.018121223896741867, -0.03182073310017586, -0.03918076306581497, -0.023322025313973427], [0.022562449797987938, 0.020858366042375565, -0.0017231513047590852, 0.00043226874549873173], [-0.016507355496287346, -0.04172918200492859, -0.015481601469218731, 0.022666754201054573], [0.029259193688631058, 0.04286543279886246, -0.03754105791449547, -0.062541663646698], [0.04009317234158516, -0.018339641392230988, 0.04915807768702507, -0.05899083986878395], [0.01782972179353237, -0.04573379084467888, 0.023091819137334824, 0.03878961130976677], [-0.05373113974928856, 0.038834068924188614, 0.002132768277078867, -0.02406797558069229], [-0.0013483228394761682, 0.001656993175856769, -0.03975428640842438, 0.023498833179473877], [0.0027185978833585978, -0.02519167959690094, 0.01093105599284172, 0.029189107939600945], [-0.0011525630252435803, 0.021616825833916664, -0.0016138585051521659, -0.02772250771522522], [0.00578159186989069, 0.0014945717994123697, 0.026750637218356133, -0.03612276166677475], [-0.005534179974347353, 0.008913582190871239, 0.0037704233545809984, -0.03676912188529968], [0.005597892217338085, -0.009528513066470623, -0.003168317722156644, 0.03640870004892349], [-0.002842044224962592, 0.009272536262869835, -0.009140499867498875, -0.03325950354337692], [-0.008913341909646988, -0.03365582600235939, -0.013117966242134571, -0.021481502801179886], [0.008754173293709755, 0.033373039215803146, 0.012700827792286873, 0.021304354071617126], [0.006330522242933512, -0.003939440473914146, 0.03524903580546379, -0.013058203272521496], [0.012631342746317387, -0.0010479415068402886, 0.028162645176053047, -0.008514156565070152], [-0.011709276586771011, 0.0009468233911320567, -0.027564726769924164, 0.008297708816826344], [0.02243930846452713, -0.016430499032139778, 0.04259604588150978, 0.013322378508746624], [0.026119917631149292, -0.03312943875789642, 0.03854640945792198, -0.010476137511432171], [-0.02625863067805767, 0.0333886481821537, -0.03856528177857399, 0.009881329722702503], [-0.023824291303753853, -0.005895715672522783, -0.0066175623796880245, -0.058439601212739944], [-0.027348002418875694, -0.006147018633782864, -0.006773720029741526, -0.030358077958226204], [0.026673870161175728, 0.006295409984886646, 0.006288128439337015, 0.030884845182299614], [-0.03881564363837242, -0.0008032091427594423, -0.00013180401583667845, -0.021440735086798668], [-0.03698328137397766, 0.0048839799128472805, 0.0027437289245426655, -0.014256465248763561], [0.035974856466054916, -0.004024244379252195, -0.0023886060807853937, 0.015320680104196072], [-0.0018593583954498172, -0.007214121054857969, 0.0018317592330276966, -0.002707574050873518], [-0.005555028095841408, -0.009084315039217472, 0.0017030854942277074, -0.007060131058096886], [0.005913441069424152, 0.009144967421889305, -0.0022786082699894905, 0.006119896192103624], [0.011226486414670944, 0.0006596064195036888, -0.017573002725839615, 0.01771220751106739], [0.011445458047091961, -0.00021945936896372586, -0.016072120517492294, 0.016152890399098396], [-0.011215178295969963, -0.0001534086186438799, 0.014809858985245228, -0.015255197882652283], [-0.00453357957303524, 0.028069917112588882, 0.0011590411886572838, -0.003932729829102755], [-0.004717017058283091, 0.027881430462002754, 0.0030319683719426394, -0.0032924641855061054], [0.004582947585731745, -0.027760900557041168, -0.0018978894222527742, 0.0034111198037862778], [-0.012861988507211208, 0.02472863718867302, -0.024160170927643776, 0.0072701978497207165], [-0.012895031832158566, 0.025228068232536316, -0.028678029775619507, 0.008494708687067032], [0.012925442308187485, -0.025049543008208275, 0.027063731104135513, -0.008342442102730274], [-0.017056487500667572, -0.0022057495079934597, 0.00479975575581193, 0.009545108303427696], [-0.014978610910475254, -0.005177096463739872, 0.003812809707596898, 0.009576563723385334], [0.01517199631780386, 0.005015792325139046, -0.003557738848030567, -0.00946566928178072], [-0.0004178775707259774, -0.002434914465993643, 0.018272781744599342, -0.011870118789374828], [0.0004769768856931478, -0.0038855145685374737, 0.023552974686026573, -0.01261101383715868], [-0.00013330389629118145, 0.0038726143538951874, -0.022951049730181694, 0.012495215982198715], [0.010712937451899052, 0.032834555953741074, 0.010300385765731335, -0.030945975333452225], [0.010885277763009071, 0.03284762054681778, 0.012602540664374828, -0.0320829339325428], [-0.011161175556480885, -0.03286611661314964, -0.012648044154047966, 0.032979536801576614], [-0.0029506513383239508, -0.005575108807533979, -0.03519897162914276, -0.006148279644548893], [-0.0027788274455815554, -0.0045663113705813885, -0.03719291463494301, -0.008039543405175209], [0.00302825216203928, 0.0045965868048369884, 0.03732163459062576, 0.007446511182934046], [-0.0018512550741434097, -0.00046635643229819834, -0.020448463037610054, -0.013812045566737652], [-0.0034419686999171972, 0.0003956958535127342, -0.023051928728818893, -0.012738116085529327], [0.0034016717690974474, -0.000694131595082581, 0.02269793301820755, 0.013009228743612766], [-0.011976771987974644, 0.01988142356276512, 0.009660234674811363, -0.04922481253743172], [-0.011903959326446056, 0.02077960968017578, 0.009285732172429562, -0.04563213139772415], [0.011844784021377563, -0.020584363490343094, -0.008227928541600704, 0.045176099985837936], [-0.03282397240400314, 0.004054199904203415, -0.008462227880954742, -0.029294870793819427], [-0.026263544335961342, 0.006927753798663616, -0.029772670939564705, -0.013114060275256634], [0.027465468272566795, -0.007347473409026861, 0.03004457801580429, 0.011909042485058308], [0.0007785376510582864, -0.01994979754090309, -0.015665370970964432, 0.006496021524071693], [-0.0023474593181163073, -0.04172183573246002, 0.0025895487051457167, -0.01291628833860159], [0.00220874254591763, 0.04181612655520439, -0.0028156840708106756, 0.012061357498168945], [-0.05050956457853317, -0.027340762317180634, -0.026197679340839386, -0.018615862354636192], [-0.0009501428576186299, -0.01597256399691105, -0.030448487028479576, 0.019578417763113976], [0.001417704625055194, 0.016143495216965675, 0.03058178722858429, -0.02016233466565609], [0.011076892726123333, 0.017091678455471992, 0.003976536449044943, -0.037272874265909195], [-0.007686518598347902, -0.0009686116245575249, 0.0016329343197867274, 0.005818862933665514], [0.0072626075707376, 0.0019397159339860082, -0.0018233528826385736, -0.00717660877853632], [-0.00409773038700223, -0.028868654742836952, 0.014700603671371937, 0.002071777358651161], [-0.008525188080966473, -0.026225334033370018, -0.025761013850569725, 0.02911018207669258], [-0.011986305005848408, 0.02281486615538597, 0.030162472277879715, 0.0029785651713609695], [-0.023789573460817337, 0.02830732800066471, 0.06365043669939041, -0.010061589069664478], [-0.01014998834580183, 0.023192623630166054, 0.004503438714891672, 0.06760984659194946], [0.042690254747867584, -0.013290343806147575, -0.10838326066732407, 0.02518613077700138], [0.02613981068134308, -0.005534962750971317, 0.03239704668521881, 0.0023926689755171537], [0.030044497922062874, -0.057900507003068924, 0.01835048571228981, 0.0001801802427507937], [-0.03758168965578079, -0.031760018318891525, -0.0522327721118927, 0.11675403267145157], [0.03510604426264763, 0.05983749404549599, 0.013609020039439201, -0.05819423869252205], [-0.0075951069593429565, 0.01601809449493885, -0.014390372671186924, 0.03304257243871689], [0.030211519449949265, -0.036692406982183456, -0.03367636725306511, 0.0025965271051973104], [-0.013893957249820232, 0.028537025675177574, 0.03749432787299156, -0.041840843856334686], [0.00654475437477231, 0.021955357864499092, 0.022787440568208694, 0.03332095593214035], [-0.0013714093947783113, 0.017061861231923103, 0.0023869192227721214, 0.006954856216907501], [-0.028610488399863243, -0.030942406505346298, 0.049114055931568146, -0.043388545513153076], [0.012933899648487568, -0.06270311027765274, -0.04450274631381035, -0.010029856115579605], [0.053363971412181854, -0.015833936631679535, -0.020185109227895737, 0.05264676734805107], [0.05545705184340477, -0.015889102593064308, -0.017231334000825882, 0.0030095765832811594], [-0.026037411764264107, -0.02231382019817829, 0.028259502723813057, -0.030941564589738846], [0.014851760119199753, -0.014055443927645683, 0.022568177431821823, 0.05440719425678253], [0.004277561325579882, 0.02406448870897293, -0.012316849082708359, 0.007782503496855497], [0.022077463567256927, 0.011957318522036076, -0.052326999604701996, 0.04387316852807999], [-0.022347789257764816, -0.010992888361215591, 0.04818625748157501, -0.04649879038333893], [0.01773458905518055, -0.035161904990673065, 0.02620941959321499, -0.04202274978160858], [0.00469242874532938, -0.01393047533929348, 0.02951541356742382, -0.021270081400871277], [-0.004757970105856657, 0.014336394146084785, -0.029377080500125885, 0.02209651842713356], [-0.02722461335361004, 0.0014891960890963674, -0.014300641603767872, 0.0015373722417280078], [-0.028724495321512222, 0.0014920331304892898, -0.04676362872123718, 0.0012717768549919128], [0.02793045900762081, -0.0012255709152668715, 0.046888478100299835, -0.0006271314341574907], [0.03308204188942909, -0.04032371565699577, 0.0029246616177260876, -0.02518443763256073], [0.024201683700084686, -0.030199388042092323, 0.03092837892472744, 0.017624612897634506], [-0.02464057318866253, 0.02981402538716793, -0.031285371631383896, -0.017000816762447357], [0.02539493702352047, -0.010836957953870296, 0.02267480455338955, 0.0022298521362245083], [0.038847021758556366, -0.013208501040935516, 0.022121207788586617, -0.02067529782652855], [-0.03906556963920593, 0.012666172347962856, -0.022061308845877647, 0.020694801583886147], [0.0010217317612841725, 0.03195459023118019, 0.05614614486694336, -0.01833469048142433], [-0.005341553594917059, 0.0275211650878191, 0.03713254630565643, -0.019406544044613838], [0.005283315200358629, -0.027782447636127472, -0.03787539526820183, 0.018973495811223984], [0.007090644910931587, -0.02032843977212906, 0.02310798689723015, -0.014763622544705868], [0.0006502020405605435, -0.02339826710522175, 0.02494196407496929, -0.030897511169314384], [-0.0006321963155642152, 0.02290056087076664, -0.024930479004979134, 0.030577123165130615], [0.005951062776148319, 0.005034392233937979, 0.004181484691798687, -0.01499935332685709], [0.009060420095920563, 0.009087491780519485, 0.0051897079683840275, -0.01120313722640276], [-0.009046386927366257, -0.008708542212843895, -0.0036105290055274963, 0.010429072193801403], [0.003029285930097103, 0.02178327552974224, 0.02044539339840412, 0.001986083807423711], [0.0023783789947628975, 0.0229529719799757, 0.016145145520567894, 0.00169503060169518], [-0.002514058956876397, -0.022701861336827278, -0.0173075869679451, -0.0023821224458515644], [-0.024778561666607857, 0.007596734445542097, 0.016210028901696205, 0.011819667182862759], [-0.024956602603197098, 0.008218474686145782, 0.01728678308427334, 0.010821795091032982], [0.025005608797073364, -0.008097315207123756, -0.0162242092192173, -0.01119137927889824], [0.004534544888883829, 0.010518873110413551, -0.025379573926329613, 0.03324941173195839], [0.0029925103299319744, 0.011618352495133877, -0.022510014474391937, 0.0318567268550396], [-0.0029592597857117653, -0.011211484670639038, 0.02257167361676693, -0.03123931959271431], [0.019675366580486298, 0.0076887174509465694, -0.01793970726430416, 0.018774904310703278], [0.017572132870554924, 0.010486581362783909, -0.020710714161396027, 0.016075491905212402], [-0.017633499577641487, -0.010706360451877117, 0.019834280014038086, -0.01613633707165718], [0.020310334861278534, -0.007709993980824947, -0.005581021308898926, 0.04708388075232506], [0.018803756684064865, -0.005966602358967066, -0.008477955125272274, 0.04681933671236038], [-0.018997853621840477, 0.006260423921048641, 0.008249879814684391, -0.046835172921419144], [-0.008810073137283325, 0.025928616523742676, 0.0204123817384243, 0.013568189926445484], [-0.009613288566470146, 0.027372151613235474, 0.02001025341451168, 0.011871122755110264], [0.009359017014503479, -0.026978272944688797, -0.020536134019494057, -0.013094980269670486], [-0.026033885776996613, -0.011715606786310673, -0.022389840334653854, -0.01721590757369995], [-0.027127252891659737, -0.011532978154718876, -0.02119588851928711, -0.017332056537270546], [0.027060475200414658, 0.011471031233668327, 0.021472826600074768, 0.017104730010032654], [0.033091042190790176, 0.01987042836844921, 0.042388610541820526, 0.00655157957226038], [0.033093005418777466, 0.020153287798166275, 0.04482171684503555, 0.008464919403195381], [-0.03315078467130661, -0.01978476718068123, -0.04475976154208183, -0.008485346101224422], [0.029218100011348724, -0.0021083506289869547, 0.024382613599300385, -0.015234055928885937], [0.03133810684084892, -0.006327952723950148, 0.02545342408120632, -0.012883518822491169], [-0.031194204464554787, 0.006303780246526003, -0.025501776486635208, 0.013339891098439693], [0.021656686440110207, 0.028094911947846413, 0.04002780467271805, -0.02978544682264328], [0.03082232177257538, 0.012541920877993107, 0.035900235176086426, 0.004091978073120117], [-0.03138105943799019, -0.012756573036313057, -0.03559257835149765, -0.002454681321978569], [0.024984022602438927, -0.01602465659379959, -0.005684230476617813, -0.0016231384361162782], [-0.0019926861859858036, -0.007531560957431793, 0.009831010363996029, -0.019686980172991753], [0.0018417323008179665, 0.007723610382527113, -0.00807100348174572, 0.019407490268349648], [0.037452708929777145, -0.0009813145734369755, -0.010114195756614208, -0.0004063702072016895], [-0.023381546139717102, -0.021862845867872238, -0.033034950494766235, 0.01974671706557274], [0.023739028722047806, 0.021565008908510208, 0.033971164375543594, -0.019802499562501907], [-0.007741155102849007, -0.013626270927488804, 0.033950597047805786, -0.03969097137451172], [0.018250996246933937, -0.03978017717599869, -0.02081989496946335, 0.040498219430446625], [-0.017577873542904854, 0.038181863725185394, 0.021977631375193596, -0.0404396615922451], [0.017709754407405853, -0.007512394804507494, 0.020945649594068527, 0.006543908268213272], [0.000994358561001718, -0.05559752881526947, 0.02204582467675209, 0.06336569786071777], [-3.6395067581906915e-05, 0.04615627974271774, -0.02184472605586052, -0.07552167773246765], [0.017050420865416527, 0.00022080123017076403, -0.009632231667637825, -0.01867586374282837], [0.03898589685559273, -0.02276686020195484, -0.02743922732770443, 0.05738578736782074], [-0.038975682109594345, -0.026910124346613884, -0.06460879743099213, 0.047589004039764404], [-0.045697521418333054, -0.01637302152812481, 0.03491891548037529, -0.04955039173364639], [0.026186875998973846, -0.028773782774806023, -0.014702383428812027, 0.04137396067380905], [0.03330308943986893, -0.008506763726472855, -0.031249595806002617, 0.07564262300729752], [-0.04537826403975487, -0.019825052469968796, -0.022523190826177597, -0.03877950832247734], [0.01635422743856907, 0.008963651023805141, 0.016138121485710144, 0.06711850315332413], [0.048502180725336075, 0.005343425087630749, -0.014745905995368958, 0.0651998445391655], [0.013634073548018932, -0.02313626930117607, 0.03748652711510658, -0.003263788064941764], [-0.02964896149933338, -0.017511887475848198, 0.007172924932092428, 0.021700624376535416], [0.021146489307284355, 0.025005891919136047, 0.010660381987690926, 0.00985756702721119], [0.05657762289047241, 0.03415677323937416, -0.03967614471912384, -0.03149677440524101], [-0.015924889594316483, -0.014832125045359135, -0.033077437430620193, 0.023975709453225136], [0.011716398410499096, -0.0037765800952911377, -0.02277899906039238, 0.04034469276666641], [-0.039265986531972885, -0.016614560037851334, 0.010162286460399628, -0.002418144838884473], [0.05287215858697891, 0.01464434526860714, -0.05291537567973137, -0.004856423940509558], [0.028544006869196892, 0.0522906519472599, 0.004848997108638287, -0.032840803265571594], [0.0036205528303980827, -0.014392921701073647, -0.03292906656861305, 0.014858243986964226], [0.048045724630355835, 0.006359344348311424, 0.013481504283845425, -0.036743760108947754], [-0.04906186833977699, -0.005744053982198238, -0.015282751061022282, 0.0363692082464695], [-0.015979550778865814, -0.01403131429105997, -0.006227731704711914, 0.058950237929821014], [-0.0033775847405195236, -0.0179284755140543, 0.03831454738974571, 0.022304043173789978], [0.0037420950829982758, 0.018116338178515434, -0.03821137547492981, -0.023064108565449715], [-0.03126571699976921, -0.005722236819565296, -0.02811497636139393, 0.020196588709950447], [-0.03291641175746918, 0.016729114577174187, 0.007514608092606068, 0.027369128540158272], [0.032731421291828156, -0.016720082610845566, -0.008198333904147148, -0.027045441791415215], [-0.036508940160274506, 0.015894293785095215, 0.04024042934179306, -0.01816457323729992], [-0.021561456844210625, -0.005335316061973572, -0.010583503171801567, -0.020128536969423294], [0.022083161398768425, 0.005037141032516956, 0.01069902628660202, 0.019609257578849792], [0.007001938764005899, -0.027778178453445435, -0.014860152266919613, -0.029048264026641846], [0.0016008776146918535, -0.013646713458001614, 0.0029751232359558344, -0.023783111944794655], [-0.0012632166035473347, 0.014015987515449524, -0.0029374798759818077, 0.02368387021124363], [0.025354228913784027, -0.047058988362550735, 0.0007856504525989294, -0.0038310973905026913], [0.022225506603717804, -0.043139126151800156, 0.02619692124426365, -0.017484476789832115], [-0.02211111970245838, 0.04362694174051285, -0.025368981063365936, 0.016758762300014496], [-0.0003365154843777418, -0.031100651249289513, 0.03461217135190964, -0.016831720247864723], [0.006643648259341717, -0.03507768362760544, 0.01921742968261242, 0.004160008858889341], [-0.006517820991575718, 0.03458714857697487, -0.020430564880371094, -0.004150077700614929], [0.004824632313102484, -0.014037803746759892, 0.030976880341768265, -0.031501952558755875], [0.005706841126084328, -0.017132489010691643, 0.03099973313510418, -0.030213933438062668], [-0.005431517958641052, 0.01682499796152115, -0.030187632888555527, 0.029991822317242622], [-0.023881932720541954, -0.03371857851743698, -0.010725326836109161, 0.024433132261037827], [-0.023455645889043808, -0.033892568200826645, -0.009986183606088161, 0.025260332971811295], [0.024141589179635048, 0.033759355545043945, 0.009328039363026619, -0.025524046272039413], [0.015726367011666298, 0.009900547564029694, 0.0035349589306861162, 0.018233157694339752], [0.015324105508625507, 0.009257971309125423, 0.0031789534259587526, 0.0199164766818285], [-0.0161491259932518, -0.009467773139476776, -0.003680400550365448, -0.019055819138884544], [-0.020514359697699547, 0.0011123609729111195, -0.02473943866789341, 0.005240743979811668], [-0.018209638074040413, 0.0015803633723407984, -0.01966937445104122, 0.001192867406643927], [0.018221477046608925, -0.0018919296562671661, 0.019445031881332397, -0.002509887795895338], [-0.024992462247610092, -0.04651279002428055, -0.04908501356840134, -0.0028662853874266148], [-0.02278399094939232, -0.04889339208602905, -0.042150478810071945, 0.0037579000927507877], [0.023182956501841545, 0.049046918749809265, 0.043439026921987534, -0.0028695815708488226], [-0.021464673802256584, 0.009838133119046688, 0.008772971108555794, 0.007661116775125265], [-0.021535348147153854, 0.00941476970911026, 0.009096791967749596, 0.00971096009016037], [0.02104492299258709, -0.009743547067046165, -0.009857860393822193, -0.008311348967254162], [-0.013627509586513042, -0.023610858246684074, 0.030545420944690704, 0.02516896091401577], [-0.013517885468900204, -0.02407914400100708, 0.0324208028614521, 0.024076422676444054], [0.013784580864012241, 0.02382223680615425, -0.030984675511717796, -0.024796009063720703], [0.015735529363155365, -0.01694795861840248, -0.00044928016723133624, -0.022593479603528976], [0.01697217859327793, -0.016342613846063614, -0.0013932673027738929, -0.022808313369750977], [-0.016464747488498688, 0.01654181256890297, 0.001204694272018969, 0.022657815366983414], [-0.03983309864997864, 0.012214993126690388, 0.024706020951271057, 0.03037405014038086], [-0.03483348712325096, 0.01113202702254057, 0.020265057682991028, 0.029430316761136055], [0.03519628942012787, -0.011237362399697304, -0.02034916914999485, -0.02932797744870186], [-0.019945111125707626, -0.028526347130537033, 0.010006468743085861, 0.005759337451308966], [-0.025907976552844048, -0.004516038112342358, 0.005208396352827549, 0.00472320755943656], [0.025985701009631157, 0.004405159968882799, -0.005361915100365877, -0.00520691554993391], [-0.05119864642620087, 0.020558860152959824, 0.07211124897003174, -0.03997255116701126], [-0.032259389758110046, 0.0013510258868336678, 0.025115137919783592, -0.012242893688380718], [0.032328490167856216, -0.0011639995500445366, -0.02500370517373085, 0.011440792120993137], [0.026067355647683144, 0.002685865620151162, -0.01653154194355011, 0.04669056832790375], [0.02116122841835022, 0.013394077308475971, 0.016040800139307976, 0.011473443359136581], [-0.02188383974134922, -0.013624941930174828, -0.017316969111561775, -0.010565491393208504], [-0.01331645529717207, -0.017919592559337616, 0.011987228877842426, 0.021041398867964745], [-0.01347921323031187, -0.014161007478833199, -0.01811918243765831, 0.041390012949705124], [0.012387690134346485, 0.014581541530787945, 0.016223669052124023, -0.0407123938202858], [0.0005731660639867187, -0.05053296685218811, 0.023363856598734856, -0.020146595314145088], [0.017252005636692047, -0.014865970239043236, -0.02386350743472576, 0.04397708177566528], [-0.018163660541176796, 0.016482418403029442, 0.02426476962864399, -0.0430835522711277], [0.027479222044348717, -0.010125060565769672, 0.028665142133831978, 0.02835683338344097], [0.03324480354785919, -0.04473591595888138, 0.01899079792201519, 0.04217643663287163], [-0.024943523108959198, 0.05594649910926819, -0.014799249358475208, -0.047693781554698944], [-0.006196907721459866, -0.010609609074890614, 0.05308942869305611, -0.026849592104554176], [-0.026076028123497963, -0.04159829765558243, 0.013095778413116932, -0.0008190491353161633], [-0.05213857442140579, 0.0017898950027301908, 0.01602218486368656, 0.018275810405611992], [0.010823537595570087, 0.04648735746741295, 0.05486055091023445, -0.03552069142460823], [-0.020718704909086227, 0.028008239343762398, -0.05618353560566902, 0.04503250867128372], [-0.0038001760840415955, -0.005931339226663113, -0.058709852397441864, 0.023674452677369118], [0.021912235766649246, 0.04654945060610771, 0.03377601131796837, -0.03886397182941437], [0.005308356136083603, -0.03867897763848305, -0.000938254059292376, 0.06425650417804718], [-0.007532567251473665, -0.051382746547460556, -0.033489059656858444, 0.007636452093720436], [-0.04691966995596886, -0.028899438679218292, 0.03567863628268242, -0.03519325330853462], [-0.043331801891326904, -0.04066052660346031, 0.01085425540804863, -0.000902008090633899], [-0.05004957690834999, 0.05778536945581436, -0.03855466470122337, 0.014036992564797401], [-0.012705081142485142, -0.028255317360162735, -0.005485948175191879, 